<?xml version="1.0"?>
<opencv_storage>
<cascade>
  <stageType>BOOST</stageType>
  <featureType>HAAR</featureType>
  <height>24</height>
  <width>24</width>
  <stageParams>
    <boostType>GAB</boostType>
    <minHitRate>9.9500000476837158e-01</minHitRate>
    <maxFalseAlarm>5.0000000000000000e-01</maxFalseAlarm>
    <weightTrimRate>9.4999999999999996e-01</weightTrimRate>
    <maxDepth>1</maxDepth>
    <maxWeakCount>100</maxWeakCount></stageParams>
  <featureParams>
    <maxCatCount>0</maxCatCount>
    <featSize>1</featSize>
    <mode>BASIC</mode></featureParams>
  <stageNum>30</stageNum>
  <stages>
    <!-- stage 0 -->
    <_>
      <maxWeakCount>9</maxWeakCount>
      <stageThreshold>-1.3105911016464233e+00</stageThreshold>
      <weakClassifiers>
        <_>
          <internalNodes>
            0 -1 418 -4.0998145937919617e-02</internalNodes>
          <leafValues>
            -7.1515148878097534e-01 5.6623375415802002e-01</leafValues></_>
        <_>
          <internalNodes>
            0 -1 663 1.1703781783580780e-02</internalNodes>
          <leafValues>
            -3.5299411416053772e-01 6.5024030208587646e-01</leafValues></_>
        <_>
          <internalNodes>
            0 -1 315 -3.5145244002342224e-01</internalNodes>
          <leafValues>
            -3.3091220259666443e-01 5.8149379491806030e-01</leafValues></_>
        <_>
          <internalNodes>
            0 -1 137 -3.4291826188564301e-02</internalNodes>
          <leafValues>
            4.0372398495674133e-01 -3.6776307225227356e-01</leafValues></_>
        <_>
          <internalNodes>
            0 -1 307 2.3661417886614799e-02</internalNodes>
          <leafValues>
            -2.0167937874794006e-01 6.7539799213409424e-01</leafValues></_>
        <_>
          <internalNodes>
            0 -1 399 -1.5141723677515984e-02</internalNodes>
          <leafValues>
            5.7238328456878662e-01 -2.6428711414337158e-01</leafValues></_>
        <_>
          <internalNodes>
            0 -1 451 -4.9077663570642471e-03</internalNodes>
          <leafValues>
            5.4288488626480103e-01 -1.9460284709930420e-01</leafValues></_>
        <_>
          <internalNodes>
            0 -1 441 -1.5981279313564301e-02</internalNodes>
          <leafValues>
            4.5748972892761230e-01 -2.8384798765182495e-01</leafValues></_>
        <_>
          <internalNodes>
            0 -1 95 -1.5668297186493874e-02</internalNodes>
          <leafValues>
            6.1188971996307373e-01 -2.0751024782657623e-01</leafValues></_></weakClassifiers></_>
    <!-- stage 1 -->
    <_>
      <maxWeakCount>11</maxWeakCount>
      <stageThreshold>-1.0117419958114624e+00</stageThreshold>
      <weakClassifiers>
        <_>
          <internalNodes>
            0 -1 280 -3.6767822504043579e-01</internalNodes>
          <leafValues>
            -6.4673912525177002e-01 5.9836065769195557e-01</leafValues></_>
        <_>
          <internalNodes>
            0 -1 242 -2.9420489072799683e-01</internalNodes>
          <leafValues>
            -2.5694486498832703e-01 7.3685365915298462e-01</leafValues></_>
        <_>
          <internalNodes>
            0 -1 350 -3.5233221948146820e-02</internalNodes>
          <leafValues>
            3.8134008646011353e-01 -3.6892142891883850e-01</leafValues></_>
        <_>
          <internalNodes>
            0 -1 267 -5.4319072514772415e-02</internalNodes>
          <leafValues>
            5.0203239917755127e-01 -2.8036436438560486e-01</leafValues></_>
        <_>
          <internalNodes>
            0 -1 328 -2.6621833443641663e-02</internalNodes>
          <leafValues>
            7.8534674644470215e-01 -1.6549718379974365e-01</leafValues></_>
        <_>
          <internalNodes>
            0 -1 299 -1.1246237158775330e-01</internalNodes>
          <leafValues>
            -7.0423787832260132e-01 1.9207146763801575e-01</leafValues></_>
        <_>
          <internalNodes>
            0 -1 219 1.0284789837896824e-02</internalNodes>
          <leafValues>
            -1.6557943820953369e-01 7.8652811050415039e-01</leafValues></_>
        <_>
          <internalNodes>
            0 -1 690 2.5393646210432053e-02</internalNodes>
          <leafValues>
            -1.6182520985603333e-01 6.3102978467941284e-01</leafValues></_>
        <_>
          <internalNodes>
            0 -1 384 -1.5040755271911621e-02</internalNodes>
          <leafValues>
            4.8483285307884216e-01 -2.0754452049732208e-01</leafValues></_>
        <_>
          <internalNodes>
            0 -1 415 -3.4837566316127777e-02</internalNodes>
          <leafValues>
            -1.4993599057197571e-01 6.6717326641082764e-01</leafValues></_>
        <_>
          <internalNodes>
            0 -1 232 2.8604505583643913e-02</internalNodes>
          <leafValues>
            -1.2918755412101746e-01 6.4183855056762695e-01</leafValues></_></weakClassifiers></_>
    <!-- stage 2 -->
    <_>
      <maxWeakCount>16</maxWeakCount>
      <stageThreshold>-9.5462316274642944e-01</stageThreshold>
      <weakClassifiers>
        <_>
          <internalNodes>
            0 -1 543 -1.3781028985977173e-01</internalNodes>
          <leafValues>
            -5.4666668176651001e-01 4.5500001311302185e-01</leafValues></_>
        <_>
          <internalNodes>
            0 -1 104 -8.2958415150642395e-03</internalNodes>
          <leafValues>
            5.1926749944686890e-01 -2.5512704253196716e-01</leafValues></_>
        <_>
          <internalNodes>
            0 -1 453 -1.5521271852776408e-03</internalNodes>
          <leafValues>
            -1.7366339266300201e-01 6.8717324733734131e-01</leafValues></_>
        <_>
          <internalNodes>
            0 -1 133 -1.9670784473419189e-02</internalNodes>
          <leafValues>
            5.1096385717391968e-01 -2.5910484790802002e-01</leafValues></_>
        <_>
          <internalNodes>
            0 -1 49 1.1200999841094017e-02</internalNodes>
          <leafValues>
            -2.0282456278800964e-01 4.9811312556266785e-01</leafValues></_>
        <_>
          <internalNodes>
            0 -1 648 1.0145752690732479e-02</internalNodes>
          <leafValues>
            -2.1867202222347260e-01 4.1263303160667419e-01</leafValues></_>
        <_>
          <internalNodes>
            0 -1 370 9.2225316911935806e-03</internalNodes>
          <leafValues>
            -1.4972472190856934e-01 5.2133893966674805e-01</leafValues></_>
        <_>
          <internalNodes>
            0 -1 43 -4.2032800614833832e-02</internalNodes>
          <leafValues>
            4.1484981775283813e-01 -1.9540150463581085e-01</leafValues></_>
        <_>
          <internalNodes>
            0 -1 270 -2.9228920117020607e-02</internalNodes>
          <leafValues>
            -4.4141429662704468e-01 1.6958479583263397e-01</leafValues></_>
        <_>
          <internalNodes>
            0 -1 90 -5.0338998436927795e-02</internalNodes>
          <leafValues>
            2.7878504991531372e-01 -3.0245938897132874e-01</leafValues></_>
        <_>
          <internalNodes>
            0 -1 649 5.8888923376798630e-04</internalNodes>
          <leafValues>
            -2.3269797861576080e-01 3.3397984504699707e-01</leafValues></_>
        <_>
          <internalNodes>
            0 -1 216 -3.3601563423871994e-02</internalNodes>
          <leafValues>
            7.1187096834182739e-01 -9.5469310879707336e-02</leafValues></_>
        <_>
          <internalNodes>
            0 -1 613 -6.5901863854378462e-04</internalNodes>
          <leafValues>
            -5.5142074823379517e-01 1.5185491740703583e-01</leafValues></_>
        <_>
          <internalNodes>
            0 -1 727 7.8176045790314674e-03</internalNodes>
          <leafValues>
            -1.6323235630989075e-01 5.2936297655105591e-01</leafValues></_>
        <_>
          <internalNodes>
            0 -1 309 -6.0572591610252857e-03</internalNodes>
          <leafValues>
            4.1391348838806152e-01 -1.7239694297313690e-01</leafValues></_>
        <_>
          <internalNodes>
            0 -1 229 2.3349337279796600e-02</internalNodes>
          <leafValues>
            -1.5748213231563568e-01 6.0949283838272095e-01</leafValues></_></weakClassifiers></_>
    <!-- stage 3 -->
    <_>
      <maxWeakCount>15</maxWeakCount>
      <stageThreshold>-1.0134216547012329e+00</stageThreshold>
      <weakClassifiers>
        <_>
          <internalNodes>
            0 -1 273 -4.7169092297554016e-01</internalNodes>
          <leafValues>
            -5.0132626295089722e-01 5.3803598880767822e-01</leafValues></_>
        <_>
          <internalNodes>
            0 -1 205 -1.1263258755207062e-01</internalNodes>
          <leafValues>
            -4.6283218264579773e-01 2.6711165904998779e-01</leafValues></_>
        <_>
          <internalNodes>
            0 -1 100 -8.2104131579399109e-03</internalNodes>
          <leafValues>
            4.8190280795097351e-01 -2.2664918005466461e-01</leafValues></_>
        <_>
          <internalNodes>
            0 -1 234 -9.2706583440303802e-02</internalNodes>
          <leafValues>
            4.1264182329177856e-01 -1.7638149857521057e-01</leafValues></_>
        <_>
          <internalNodes>
            0 -1 134 3.1070817261934280e-02</internalNodes>
          <leafValues>
            -1.7954410612583160e-01 5.0549769401550293e-01</leafValues></_>
        <_>
          <internalNodes>
            0 -1 252 -6.2166087329387665e-02</internalNodes>
          <leafValues>
            -6.4312940835952759e-01 1.7622523009777069e-01</leafValues></_>
        <_>
          <internalNodes>
            0 -1 696 7.7378628775477409e-03</internalNodes>
          <leafValues>
            -2.5788596272468567e-01 3.8609841465950012e-01</leafValues></_>
        <_>
          <internalNodes>
            0 -1 481 -4.5937700197100639e-03</internalNodes>
          <leafValues>
            5.3479105234146118e-01 -1.2599435448646545e-01</leafValues></_>
        <_>
          <internalNodes>
            0 -1 401 -7.9366542398929596e-02</internalNodes>
          <leafValues>
            2.3734983801841736e-01 -3.6497735977172852e-01</leafValues></_>
        <_>
          <internalNodes>
            0 -1 368 3.6769690923392773e-03</internalNodes>
          <leafValues>
            -1.2430480122566223e-01 6.3122802972793579e-01</leafValues></_>
        <_>
          <internalNodes>
            0 -1 47 1.4263816177845001e-02</internalNodes>
          <leafValues>
            -9.2758484184741974e-02 6.9140630960464478e-01</leafValues></_>
        <_>
          <internalNodes>
            0 -1 489 -1.5274744480848312e-02</internalNodes>
          <leafValues>
            -6.8519121408462524e-01 1.1956969648599625e-01</leafValues></_>
        <_>
          <internalNodes>
            0 -1 692 -7.7039445750415325e-03</internalNodes>
          <leafValues>
            6.1663979291915894e-01 -1.4275166392326355e-01</leafValues></_>
        <_>
          <internalNodes>
            0 -1 329 -1.6266637248918414e-03</internalNodes>
          <leafValues>
            6.2009251117706299e-01 -1.1742280423641205e-01</leafValues></_>
        <_>
          <internalNodes>
            0 -1 1 8.2564807962626219e-04</internalNodes>
          <leafValues>
            1.3134104013442993e-01 -6.5106749534606934e-01</leafValues></_></weakClassifiers></_>
    <!-- stage 4 -->
    <_>
      <maxWeakCount>11</maxWeakCount>
      <stageThreshold>-1.0491453409194946e+00</stageThreshold>
      <weakClassifiers>
        <_>
          <internalNodes>
            0 -1 28 -3.4560608863830566e-01</internalNodes>
          <leafValues>
            5.4585152864456177e-01 -4.2372882366180420e-01</leafValues></_>
        <_>
          <internalNodes>
            0 -1 115 -3.7751058116555214e-03</internalNodes>
          <leafValues>
            4.1122236847877502e-01 -3.4069541096687317e-01</leafValues></_>
        <_>
          <internalNodes>
            0 -1 542 -1.2721768580377102e-02</internalNodes>
          <leafValues>
            5.6634449958801270e-01 -2.1055382490158081e-01</leafValues></_>
        <_>
          <internalNodes>
            0 -1 449 -4.9176570028066635e-03</internalNodes>
          <leafValues>
            4.7634297609329224e-01 -2.4927237629890442e-01</leafValues></_>
        <_>
          <internalNodes>
            0 -1 689 -8.0468028783798218e-02</internalNodes>
          <leafValues>
            -6.4987093210220337e-01 1.9115319848060608e-01</leafValues></_>
        <_>
          <internalNodes>
            0 -1 605 -3.5909451544284821e-02</internalNodes>
          <leafValues>
            1.5733042359352112e-01 -7.4245280027389526e-01</leafValues></_>
        <_>
          <internalNodes>
            0 -1 165 1.4492194168269634e-02</internalNodes>
          <leafValues>
            -1.4864027500152588e-01 6.6878211498260498e-01</leafValues></_>
        <_>
          <internalNodes>
            0 -1 360 6.5938425250351429e-03</internalNodes>
          <leafValues>
            -1.5905852615833282e-01 6.3059723377227783e-01</leafValues></_>
        <_>
          <internalNodes>
            0 -1 590 8.4766708314418793e-03</internalNodes>
          <leafValues>
            -2.0285788178443909e-01 4.5476278662681580e-01</leafValues></_>
        <_>
          <internalNodes>
            0 -1 305 1.4341271482408047e-02</internalNodes>
          <leafValues>
            -1.7451184988021851e-01 6.1109977960586548e-01</leafValues></_>
        <_>
          <internalNodes>
            0 -1 556 -4.2290678247809410e-03</internalNodes>
          <leafValues>
            4.6344715356826782e-01 -2.1392542123794556e-01</leafValues></_></weakClassifiers></_>
    <!-- stage 5 -->
    <_>
      <maxWeakCount>12</maxWeakCount>
      <stageThreshold>-8.4017974138259888e-01</stageThreshold>
      <weakClassifiers>
        <_>
          <internalNodes>
            0 -1 15 -1.7203976213932037e-01</internalNodes>
          <leafValues>
            5.2217453718185425e-01 -4.1147130727767944e-01</leafValues></_>
        <_>
          <internalNodes>
            0 -1 340 -1.7836615443229675e-02</internalNodes>
          <leafValues>
            6.3803756237030029e-01 -2.4746111035346985e-01</leafValues></_>
        <_>
          <internalNodes>
            0 -1 275 -2.4273785948753357e-01</internalNodes>
          <leafValues>
            -2.1072646975517273e-01 5.4811388254165649e-01</leafValues></_>
        <_>
          <internalNodes>
            0 -1 231 1.8798727542161942e-02</internalNodes>
          <leafValues>
            -2.1826139092445374e-01 6.6026890277862549e-01</leafValues></_>
        <_>
          <internalNodes>
            0 -1 8 -3.5430029034614563e-02</internalNodes>
          <leafValues>
            4.4069573283195496e-01 -2.1195109188556671e-01</leafValues></_>
        <_>
          <internalNodes>
            0 -1 155 -5.0737660378217697e-02</internalNodes>
          <leafValues>
            3.5958692431449890e-01 -2.3651565611362457e-01</leafValues></_>
        <_>
          <internalNodes>
            0 -1 422 -1.0127784684300423e-02</internalNodes>
          <leafValues>
            5.3884053230285645e-01 -1.8036180734634399e-01</leafValues></_>
        <_>
          <internalNodes>
            0 -1 564 -2.6940497756004333e-01</internalNodes>
          <leafValues>
            -4.7627210617065430e-01 2.2974106669425964e-01</leafValues></_>
        <_>
          <internalNodes>
            0 -1 220 4.9710003659129143e-03</internalNodes>
          <leafValues>
            -3.2573002576828003e-01 3.1488123536109924e-01</leafValues></_>
        <_>
          <internalNodes>
            0 -1 296 -8.6478702723979950e-03</internalNodes>
          <leafValues>
            7.2199654579162598e-01 -1.2310782819986343e-01</leafValues></_>
        <_>
          <internalNodes>
            0 -1 185 5.9465445578098297e-02</internalNodes>
          <leafValues>
            -7.3457330465316772e-02 7.9047906398773193e-01</leafValues></_>
        <_>
          <internalNodes>
            0 -1 557 1.1788826435804367e-02</internalNodes>
          <leafValues>
            -1.2413485348224640e-01 6.3496929407119751e-01</leafValues></_></weakClassifiers></_>
    <!-- stage 6 -->
    <_>
      <maxWeakCount>18</maxWeakCount>
      <stageThreshold>-5.6613725423812866e-01</stageThreshold>
      <weakClassifiers>
        <_>
          <internalNodes>
            0 -1 92 -2.7024787850677967e-03</internalNodes>
          <leafValues>
            3.0777201056480408e-01 -7.1851849555969238e-01</leafValues></_>
        <_>
          <internalNodes>
            0 -1 341 -3.9537273347377777e-02</internalNodes>
          <leafValues>
            3.6299747228622437e-01 -3.4458237886428833e-01</leafValues></_>
        <_>
          <internalNodes>
            0 -1 152 -6.0596719384193420e-02</internalNodes>
          <leafValues>
            2.7736482024192810e-01 -4.2882528901100159e-01</leafValues></_>
        <_>
          <internalNodes>
            0 -1 727 6.0060913674533367e-03</internalNodes>
          <leafValues>
            -2.1808353066444397e-01 4.4602888822555542e-01</leafValues></_>
        <_>
          <internalNodes>
            0 -1 675 -6.2529139220714569e-02</internalNodes>
          <leafValues>
            -7.0463275909423828e-01 1.1108824610710144e-01</leafValues></_>
        <_>
          <internalNodes>
            0 -1 334 5.9385034255683422e-03</internalNodes>
          <leafValues>
            -2.3016524314880371e-01 4.3687394261360168e-01</leafValues></_>
        <_>
          <internalNodes>
            0 -1 427 -9.2677399516105652e-04</internalNodes>
          <leafValues>
            5.0761169195175171e-01 -2.0574907958507538e-01</leafValues></_>
        <_>
          <internalNodes>
            0 -1 52 -9.7875129431486130e-03</internalNodes>
          <leafValues>
            4.3739938735961914e-01 -1.7421451210975647e-01</leafValues></_>
        <_>
          <internalNodes>
            0 -1 712 5.1923124119639397e-03</internalNodes>
          <leafValues>
            -2.3988531529903412e-01 3.7939611077308655e-01</leafValues></_>
        <_>
          <internalNodes>
            0 -1 686 -1.3454966247081757e-02</internalNodes>
          <leafValues>
            5.4075211286544800e-01 -1.2076353281736374e-01</leafValues></_>
        <_>
          <internalNodes>
            0 -1 277 -1.6949154436588287e-01</internalNodes>
          <leafValues>
            -9.8346896469593048e-02 7.5902599096298218e-01</leafValues></_>
        <_>
          <internalNodes>
            0 -1 325 -3.3494681119918823e-03</internalNodes>
          <leafValues>
            4.0866377949714661e-01 -2.0264676213264465e-01</leafValues></_>
        <_>
          <internalNodes>
            0 -1 670 -9.0672669466584921e-04</internalNodes>
          <leafValues>
            -5.3954368829727173e-01 1.5849201381206512e-01</leafValues></_>
        <_>
          <internalNodes>
            0 -1 107 -3.0573771800845861e-03</internalNodes>
          <leafValues>
            6.5808340907096863e-02 -1.</leafValues></_>
        <_>
          <internalNodes>
            0 -1 571 -3.0962102115154266e-02</internalNodes>
          <leafValues>
            -6.1850935220718384e-01 1.0149343311786652e-01</leafValues></_>
        <_>
          <internalNodes>
            0 -1 326 -8.5219908505678177e-03</internalNodes>
          <leafValues>
            4.8729634284973145e-01 -1.7761446535587311e-01</leafValues></_>
        <_>
          <internalNodes>
            0 -1 456 -6.4339028904214501e-04</internalNodes>
          <leafValues>
            -6.3907694816589355e-01 1.3819243013858795e-01</leafValues></_>
        <_>
          <internalNodes>
            0 -1 362 8.0825500190258026e-03</internalNodes>
          <leafValues>
            -1.5800781548023224e-01 5.2926450967788696e-01</leafValues></_></weakClassifiers></_>
    <!-- stage 7 -->
    <_>
      <maxWeakCount>18</maxWeakCount>
      <stageThreshold>-7.6363551616668701e-01</stageThreshold>
      <weakClassifiers>
        <_>
          <internalNodes>
            0 -1 132 -5.4624866694211960e-02</internalNodes>
          <leafValues>
            6.3402062654495239e-01 -6.4606741070747375e-02</leafValues></_>
        <_>
          <internalNodes>
            0 -1 397 -1.9427788257598877e-01</internalNodes>
          <leafValues>
            1.9129911065101624e-01 -5.0894838571548462e-01</leafValues></_>
        <_>
          <internalNodes>
            0 -1 246 -2.5919503532350063e-03</internalNodes>
          <leafValues>
            2.7800682187080383e-01 -3.0179455876350403e-01</leafValues></_>
        <_>
          <internalNodes>
            0 -1 131 7.5275320559740067e-03</internalNodes>
          <leafValues>
            -1.2568840384483337e-01 6.3573801517486572e-01</leafValues></_>
        <_>
          <internalNodes>
            0 -1 184 -6.6172247752547264e-03</internalNodes>
          <leafValues>
            4.6135887503623962e-01 -2.4720643460750580e-01</leafValues></_>
        <_>
          <internalNodes>
            0 -1 624 3.9698630571365356e-03</internalNodes>
          <leafValues>
            -1.5744973719120026e-01 4.3280848860740662e-01</leafValues></_>
        <_>
          <internalNodes>
            0 -1 389 -2.0588915795087814e-02</internalNodes>
          <leafValues>
            -6.4469814300537109e-01 1.5552282333374023e-01</leafValues></_>
        <_>
          <internalNodes>
            0 -1 743 3.0262651853263378e-03</internalNodes>
          <leafValues>
            -1.8765780329704285e-01 5.0579410791397095e-01</leafValues></_>
        <_>
          <internalNodes>
            0 -1 187 6.6596982069313526e-03</internalNodes>
          <leafValues>
            -8.3364732563495636e-02 5.2028262615203857e-01</leafValues></_>
        <_>
          <internalNodes>
            0 -1 235 -4.0900744497776031e-03</internalNodes>
          <leafValues>
            4.0713015198707581e-01 -2.1069906651973724e-01</leafValues></_>
        <_>
          <internalNodes>
            0 -1 298 -3.3764325780794024e-04</internalNodes>
          <leafValues>
            -4.7481292486190796e-01 1.2893581390380859e-01</leafValues></_>
        <_>
          <internalNodes>
            0 -1 167 -1.0911102872341871e-03</internalNodes>
          <leafValues>
            3.3592879772186279e-01 -1.7238935828208923e-01</leafValues></_>
        <_>
          <internalNodes>
            0 -1 682 -8.5383938858285546e-04</internalNodes>
          <leafValues>
            -7.8529036045074463e-01 7.8230522572994232e-02</leafValues></_>
        <_>
          <internalNodes>
            0 -1 161 1.3729983475059271e-03</internalNodes>
          <leafValues>
            -1.2214578688144684e-01 5.4489451646804810e-01</leafValues></_>
        <_>
          <internalNodes>
            0 -1 279 2.0698178559541702e-04</internalNodes>
          <leafValues>
            -1.9900873303413391e-01 2.8748789429664612e-01</leafValues></_>
        <_>
          <internalNodes>
            0 -1 172 3.7749827606603503e-04</internalNodes>
          <leafValues>
            1.2335921078920364e-01 -4.7576180100440979e-01</leafValues></_>
        <_>
          <internalNodes>
            0 -1 623 -6.8816833663731813e-04</internalNodes>
          <leafValues>
            4.2513284087181091e-01 -1.4160321652889252e-01</leafValues></_>
        <_>
          <internalNodes>
            0 -1 575 2.3759678006172180e-03</internalNodes>
          <leafValues>
            -3.2558313012123108e-01 1.9218622148036957e-01</leafValues></_></weakClassifiers></_>
    <!-- stage 8 -->
    <_>
      <maxWeakCount>24</maxWeakCount>
      <stageThreshold>-7.6523590087890625e-01</stageThreshold>
      <weakClassifiers>
        <_>
          <internalNodes>
            0 -1 694 4.4463141821324825e-03</internalNodes>
          <leafValues>
            -1.1153846234083176e-01 4.4482758641242981e-01</leafValues></_>
        <_>
          <internalNodes>
            0 -1 119 -6.3045584829524159e-04</internalNodes>
          <leafValues>
            2.1032062172889709e-01 -3.3967328071594238e-01</leafValues></_>
        <_>
          <internalNodes>
            0 -1 540 -8.3160869777202606e-02</internalNodes>
          <leafValues>
            4.4185119867324829e-01 -1.4897932112216949e-01</leafValues></_>
        <_>
          <internalNodes>
            0 -1 562 3.6878749728202820e-02</internalNodes>
          <leafValues>
            -1.7068792879581451e-01 3.6305212974548340e-01</leafValues></_>
        <_>
          <internalNodes>
            0 -1 262 -6.2180764973163605e-02</internalNodes>
          <leafValues>
            9.7714200615882874e-02 -6.1425000429153442e-01</leafValues></_>
        <_>
          <internalNodes>
            0 -1 285 -3.1267840415239334e-02</internalNodes>
          <leafValues>
            -2.2865681350231171e-01 2.4520771205425262e-01</leafValues></_>
        <_>
          <internalNodes>
            0 -1 79 -4.3009193614125252e-03</internalNodes>
          <leafValues>
            4.6489724516868591e-01 -1.2735100090503693e-01</leafValues></_>
        <_>
          <internalNodes>
            0 -1 258 -2.1093926625326276e-04</internalNodes>
          <leafValues>
            -3.4068092703819275e-01 1.6897600889205933e-01</leafValues></_>
        <_>
          <internalNodes>
            0 -1 579 -2.7505369856953621e-02</internalNodes>
          <leafValues>
            -7.8903150558471680e-01 6.2534309923648834e-02</leafValues></_>
        <_>
          <internalNodes>
            0 -1 191 -5.9562299400568008e-02</internalNodes>
          <leafValues>
            6.1874067783355713e-01 -1.0218432545661926e-01</leafValues></_>
        <_>
          <internalNodes>
            0 -1 333 5.7607442140579224e-03</internalNodes>
          <leafValues>
            -1.4547353982925415e-01 3.5776352882385254e-01</leafValues></_>
        <_>
          <internalNodes>
            0 -1 32 2.5963596999645233e-03</internalNodes>
          <leafValues>
            -1.6128896176815033e-01 3.2024341821670532e-01</leafValues></_>
        <_>
          <internalNodes>
            0 -1 345 -1.8754941225051880e-01</internalNodes>
          <leafValues>
            3.2584044337272644e-01 -1.6534627974033356e-01</leafValues></_>
        <_>
          <internalNodes>
            0 -1 753 -5.4060446564108133e-04</internalNodes>
          <leafValues>
            -5.0416624546051025e-01 1.3430379331111908e-01</leafValues></_>
        <_>
          <internalNodes>
            0 -1 138 -8.6739649996161461e-03</internalNodes>
          <leafValues>
            3.1785511970520020e-01 -1.8304085731506348e-01</leafValues></_>
        <_>
          <internalNodes>
            0 -1 154 -6.7405411973595619e-03</internalNodes>
          <leafValues>
            -4.1238439083099365e-01 1.4105397462844849e-01</leafValues></_>
        <_>
          <internalNodes>
            0 -1 388 -9.8344450816512108e-04</internalNodes>
          <leafValues>
            3.2194095849990845e-01 -1.7206856608390808e-01</leafValues></_>
        <_>
          <internalNodes>
            0 -1 306 1.6642477363348007e-02</internalNodes>
          <leafValues>
            -7.6542340219020844e-02 7.2482770681381226e-01</leafValues></_>
        <_>
          <internalNodes>
            0 -1 470 -8.5705891251564026e-04</internalNodes>
          <leafValues>
            7.4675761163234711e-02 -9.1872799396514893e-01</leafValues></_>
        <_>
          <internalNodes>
            0 -1 71 4.0716635994613171e-03</internalNodes>
          <leafValues>
            -1.2548713386058807e-01 4.6794697642326355e-01</leafValues></_>
        <_>
          <internalNodes>
            0 -1 17 2.3492972832173109e-03</internalNodes>
          <leafValues>
            7.0328958332538605e-02 -9.5494502782821655e-01</leafValues></_>
        <_>
          <internalNodes>
            0 -1 452 -2.9215805698186159e-03</internalNodes>
          <leafValues>
            2.9037886857986450e-01 -1.8905264139175415e-01</leafValues></_>
        <_>
          <internalNodes>
            0 -1 524 3.6970249493606389e-04</internalNodes>
          <leafValues>
            1.5151000022888184e-01 -4.1699972748756409e-01</leafValues></_>
        <_>
          <internalNodes>
            0 -1 237 -2.4854665622115135e-02</internalNodes>
          <leafValues>
            4.9336650967597961e-01 -1.1230154335498810e-01</leafValues></_></weakClassifiers></_>
    <!-- stage 9 -->
    <_>
      <maxWeakCount>18</maxWeakCount>
      <stageThreshold>-1.0217901468276978e+00</stageThreshold>
      <weakClassifiers>
        <_>
          <internalNodes>
            0 -1 269 -4.0775465965270996e-01</internalNodes>
          <leafValues>
            4.7439351677894592e-01 -4.2458099126815796e-01</leafValues></_>
        <_>
          <internalNodes>
            0 -1 73 -1.3564839959144592e-01</internalNodes>
          <leafValues>
            3.8437119126319885e-01 -2.9431432485580444e-01</leafValues></_>
        <_>
          <internalNodes>
            0 -1 102 -1.0740501806139946e-02</internalNodes>
          <leafValues>
            3.2706803083419800e-01 -2.7276194095611572e-01</leafValues></_>
        <_>
          <internalNodes>
            0 -1 400 -1.1289307475090027e-01</internalNodes>
          <leafValues>
            1.4813642203807831e-01 -5.5524736642837524e-01</leafValues></_>
        <_>
          <internalNodes>
            0 -1 683 2.0025070989504457e-04</internalNodes>
          <leafValues>
            1.8386019766330719e-01 -4.3373879790306091e-01</leafValues></_>
        <_>
          <internalNodes>
            0 -1 664 1.3889584690332413e-02</internalNodes>
          <leafValues>
            -2.5083979964256287e-01 3.6661008000373840e-01</leafValues></_>
        <_>
          <internalNodes>
            0 -1 2 1.0812852997332811e-03</internalNodes>
          <leafValues>
            2.0084449648857117e-01 -3.9793300628662109e-01</leafValues></_>
        <_>
          <internalNodes>
            0 -1 682 9.0741040185093880e-04</internalNodes>
          <leafValues>
            8.0216042697429657e-02 -5.3651851415634155e-01</leafValues></_>
        <_>
          <internalNodes>
            0 -1 74 -7.4119679629802704e-04</internalNodes>
          <leafValues>
            6.3733436167240143e-02 -8.9769023656845093e-01</leafValues></_>
        <_>
          <internalNodes>
            0 -1 681 6.4281841332558542e-05</internalNodes>
          <leafValues>
            -2.6411560177803040e-01 2.1466590464115143e-01</leafValues></_>
        <_>
          <internalNodes>
            0 -1 374 9.7094604279845953e-04</internalNodes>
          <leafValues>
            1.1473882198333740e-01 -4.4461876153945923e-01</leafValues></_>
        <_>
          <internalNodes>
            0 -1 527 -1.0659442283213139e-02</internalNodes>
          <leafValues>
            5.2719116210937500e-01 -1.1754645407199860e-01</leafValues></_>
        <_>
          <internalNodes>
            0 -1 585 4.9506202340126038e-03</internalNodes>
          <leafValues>
            9.5895469188690186e-02 -5.7432866096496582e-01</leafValues></_>
        <_>
          <internalNodes>
            0 -1 621 -2.0701850298792124e-03</internalNodes>
          <leafValues>
            4.8016875982284546e-01 -1.1744056642055511e-01</leafValues></_>
        <_>
          <internalNodes>
            0 -1 622 6.1907609924674034e-03</internalNodes>
          <leafValues>
            -1.7057771980762482e-01 3.4573945403099060e-01</leafValues></_>
        <_>
          <internalNodes>
            0 -1 378 2.4321688339114189e-02</internalNodes>
          <leafValues>
            -1.1867161095142365e-01 4.6649897098541260e-01</leafValues></_>
        <_>
          <internalNodes>
            0 -1 531 1.2278945650905371e-03</internalNodes>
          <leafValues>
            1.3721972703933716e-01 -4.3604323267936707e-01</leafValues></_>
        <_>
          <internalNodes>
            0 -1 276 -7.6071254443377256e-04</internalNodes>
          <leafValues>
            -4.6770995855331421e-01 1.2323179841041565e-01</leafValues></_></weakClassifiers></_>
    <!-- stage 10 -->
    <_>
      <maxWeakCount>24</maxWeakCount>
      <stageThreshold>-6.9496083259582520e-01</stageThreshold>
      <weakClassifiers>
        <_>
          <internalNodes>
            0 -1 16 -8.8636666536331177e-02</internalNodes>
          <leafValues>
            5.2201259136199951e-01 -7.8651688992977142e-02</leafValues></_>
        <_>
          <internalNodes>
            0 -1 45 -2.8592944145202637e-01</internalNodes>
          <leafValues>
            3.2604235410690308e-01 -2.3374663293361664e-01</leafValues></_>
        <_>
          <internalNodes>
            0 -1 26 -6.5346211194992065e-02</internalNodes>
          <leafValues>
            5.0597381591796875e-01 -1.5805415809154510e-01</leafValues></_>
        <_>
          <internalNodes>
            0 -1 122 2.6787191745825112e-04</internalNodes>
          <leafValues>
            1.3037966191768646e-01 -4.5746791362762451e-01</leafValues></_>
        <_>
          <internalNodes>
            0 -1 80 5.8732964098453522e-03</internalNodes>
          <leafValues>
            -9.6370518207550049e-02 5.5200546979904175e-01</leafValues></_>
        <_>
          <internalNodes>
            0 -1 97 -1.1841920204460621e-03</internalNodes>
          <leafValues>
            3.6256697773933411e-01 -1.8440829217433929e-01</leafValues></_>
        <_>
          <internalNodes>
            0 -1 704 -2.2911035921424627e-04</internalNodes>
          <leafValues>
            -3.8740605115890503e-01 1.3970370590686798e-01</leafValues></_>
        <_>
          <internalNodes>
            0 -1 659 -4.9664815887808800e-03</internalNodes>
          <leafValues>
            -1.0046180337667465e-01 6.9277882575988770e-01</leafValues></_>
        <_>
          <internalNodes>
            0 -1 354 1.6932448372244835e-02</internalNodes>
          <leafValues>
            -1.5285909175872803e-01 4.1101101040840149e-01</leafValues></_>
        <_>
          <internalNodes>
            0 -1 759 8.4619387052953243e-04</internalNodes>
          <leafValues>
            1.5142339468002319e-01 -5.2932965755462646e-01</leafValues></_>
        <_>
          <internalNodes>
            0 -1 406 6.2761433422565460e-02</internalNodes>
          <leafValues>
            -1.5427888929843903e-01 4.5770522952079773e-01</leafValues></_>
        <_>
          <internalNodes>
            0 -1 249 -4.3263737112283707e-02</internalNodes>
          <leafValues>
            2.8747847676277161e-01 -1.9381131231784821e-01</leafValues></_>
        <_>
          <internalNodes>
            0 -1 147 -1.5516230836510658e-02</internalNodes>
          <leafValues>
            4.5673456788063049e-01 -1.0562831163406372e-01</leafValues></_>
        <_>
          <internalNodes>
            0 -1 141 -4.0760241448879242e-02</internalNodes>
          <leafValues>
            3.5208827257156372e-01 -1.4980840682983398e-01</leafValues></_>
        <_>
          <internalNodes>
            0 -1 405 -2.4116162210702896e-02</internalNodes>
          <leafValues>
            4.2393597960472107e-01 -1.2934307754039764e-01</leafValues></_>
        <_>
          <internalNodes>
            0 -1 53 -1.2240745127201080e-01</internalNodes>
          <leafValues>
            5.3323268890380859e-01 -9.4453677535057068e-02</leafValues></_>
        <_>
          <internalNodes>
            0 -1 639 1.4998780097812414e-03</internalNodes>
          <leafValues>
            1.4585877954959869e-01 -3.8698694109916687e-01</leafValues></_>
        <_>
          <internalNodes>
            0 -1 739 -1.7013116739690304e-03</internalNodes>
          <leafValues>
            3.7717065215110779e-01 -1.3663919270038605e-01</leafValues></_>
        <_>
          <internalNodes>
            0 -1 633 7.8401027712970972e-04</internalNodes>
          <leafValues>
            1.2158534675836563e-01 -4.1973179578781128e-01</leafValues></_>
        <_>
          <internalNodes>
            0 -1 377 -1.3234591111540794e-02</internalNodes>
          <leafValues>
            5.7320523262023926e-01 -8.3219990134239197e-02</leafValues></_>
        <_>
          <internalNodes>
            0 -1 376 1.3630660250782967e-02</internalNodes>
          <leafValues>
            -1.1940076947212219e-01 4.5281514525413513e-01</leafValues></_>
        <_>
          <internalNodes>
            0 -1 264 -7.7370684593915939e-03</internalNodes>
          <leafValues>
            2.5076958537101746e-01 -2.6228964328765869e-01</leafValues></_>
        <_>
          <internalNodes>
            0 -1 82 -5.9411413967609406e-02</internalNodes>
          <leafValues>
            8.6521625518798828e-02 -7.2959703207015991e-01</leafValues></_>
        <_>
          <internalNodes>
            0 -1 462 -8.1301946192979813e-03</internalNodes>
          <leafValues>
            -6.0560739040374756e-01 9.2980906367301941e-02</leafValues></_></weakClassifiers></_>
    <!-- stage 11 -->
    <_>
      <maxWeakCount>25</maxWeakCount>
      <stageThreshold>-7.9906511306762695e-01</stageThreshold>
      <weakClassifiers>
        <_>
          <internalNodes>
            0 -1 379 -2.0484551787376404e-01</internalNodes>
          <leafValues>
            -1.1591355502605438e-01 4.3824025988578796e-01</leafValues></_>
        <_>
          <internalNodes>
            0 -1 174 1.8271720036864281e-02</internalNodes>
          <leafValues>
            -1.2695984542369843e-01 6.4263421297073364e-01</leafValues></_>
        <_>
          <internalNodes>
            0 -1 364 -6.0627097263932228e-03</internalNodes>
          <leafValues>
            3.4335967898368835e-01 -2.1644327044487000e-01</leafValues></_>
        <_>
          <internalNodes>
            0 -1 94 -5.1550725474953651e-03</internalNodes>
          <leafValues>
            6.5297609567642212e-01 -8.0965109169483185e-02</leafValues></_>
        <_>
          <internalNodes>
            0 -1 738 -2.8717527166008949e-03</internalNodes>
          <leafValues>
            4.7585445642471313e-01 -1.3735340535640717e-01</leafValues></_>
        <_>
          <internalNodes>
            0 -1 726 4.3682218529284000e-03</internalNodes>
          <leafValues>
            -1.4196947216987610e-01 4.1342452168464661e-01</leafValues></_>
        <_>
          <internalNodes>
            0 -1 421 -8.6076278239488602e-03</internalNodes>
          <leafValues>
            4.7380384802818298e-01 -1.3007636368274689e-01</leafValues></_>
        <_>
          <internalNodes>
            0 -1 473 -4.2746756225824356e-03</internalNodes>
          <leafValues>
            -7.3992095887660980e-02 7.7764242887496948e-01</leafValues></_>
        <_>
          <internalNodes>
            0 -1 369 -5.5504301562905312e-03</internalNodes>
          <leafValues>
            7.3140579462051392e-01 -5.6014459580183029e-02</leafValues></_>
        <_>
          <internalNodes>
            0 -1 251 5.0074295140802860e-03</internalNodes>
          <leafValues>
            -9.1170102357864380e-02 5.1560014486312866e-01</leafValues></_>
        <_>
          <internalNodes>
            0 -1 206 -1.6519941389560699e-02</internalNodes>
          <leafValues>
            5.7082712650299072e-01 -9.9486298859119415e-02</leafValues></_>
        <_>
          <internalNodes>
            0 -1 290 -1.3461704365909100e-03</internalNodes>
          <leafValues>
            -5.0109166651964188e-02 7.8586882352828979e-01</leafValues></_>
        <_>
          <internalNodes>
            0 -1 210 3.4291576594114304e-03</internalNodes>
          <leafValues>
            -8.7456412613391876e-02 4.6673035621643066e-01</leafValues></_>
        <_>
          <internalNodes>
            0 -1 632 -4.0123648941516876e-02</internalNodes>
          <leafValues>
            3.0798190832138062e-01 -1.5872697532176971e-01</leafValues></_>
        <_>
          <internalNodes>
            0 -1 676 3.6193025298416615e-03</internalNodes>
          <leafValues>
            -1.0479883849620819e-01 5.1857906579971313e-01</leafValues></_>
        <_>
          <internalNodes>
            0 -1 383 -1.0203104466199875e-02</internalNodes>
          <leafValues>
            1.4966826140880585e-01 -3.4706804156303406e-01</leafValues></_>
        <_>
          <internalNodes>
            0 -1 284 4.0778485126793385e-03</internalNodes>
          <leafValues>
            -1.0275132954120636e-01 5.6582581996917725e-01</leafValues></_>
        <_>
          <internalNodes>
            0 -1 508 -1.2387041747570038e-01</internalNodes>
          <leafValues>
            -2.2850643098354340e-01 2.3771919310092926e-01</leafValues></_>
        <_>
          <internalNodes>
            0 -1 702 -2.8109578415751457e-03</internalNodes>
          <leafValues>
            3.6669710278511047e-01 -1.4695839583873749e-01</leafValues></_>
        <_>
          <internalNodes>
            0 -1 683 7.6884822919964790e-04</internalNodes>
          <leafValues>
            1.0471994429826736e-01 -5.3945994377136230e-01</leafValues></_>
        <_>
          <internalNodes>
            0 -1 208 -2.9444447718560696e-03</internalNodes>
          <leafValues>
            3.1648278236389160e-01 -1.5808090567588806e-01</leafValues></_>
        <_>
          <internalNodes>
            0 -1 158 -6.2153646722435951e-03</internalNodes>
          <leafValues>
            3.2565307617187500e-01 -1.6723871231079102e-01</leafValues></_>
        <_>
          <internalNodes>
            0 -1 589 1.3014662545174360e-03</internalNodes>
          <leafValues>
            -1.8682286143302917e-01 2.7437332272529602e-01</leafValues></_>
        <_>
          <internalNodes>
            0 -1 550 -7.6893030200153589e-04</internalNodes>
          <leafValues>
            3.6428311467170715e-01 -1.3094620406627655e-01</leafValues></_>
        <_>
          <internalNodes>
            0 -1 320 -1.0668084025382996e-02</internalNodes>
          <leafValues>
            1.6289378702640533e-01 -3.2043471932411194e-01</leafValues></_></weakClassifiers></_>
    <!-- stage 12 -->
    <_>
      <maxWeakCount>26</maxWeakCount>
      <stageThreshold>-7.2366094589233398e-01</stageThreshold>
      <weakClassifiers>
        <_>
          <internalNodes>
            0 -1 337 -9.9419038742780685e-03</internalNodes>
          <leafValues>
            -3.6040610074996948e-01 3.0011072754859924e-01</leafValues></_>
        <_>
          <internalNodes>
            0 -1 13 -1.8896296620368958e-02</internalNodes>
          <leafValues>
            3.6131432652473450e-01 -2.3495729267597198e-01</leafValues></_>
        <_>
          <internalNodes>
            0 -1 371 1.2779370881617069e-02</internalNodes>
          <leafValues>
            -1.5227137506008148e-01 5.0243455171585083e-01</leafValues></_>
        <_>
          <internalNodes>
            0 -1 492 -1.9388731569051743e-02</internalNodes>
          <leafValues>
            2.4621587991714478e-01 -3.2301411032676697e-01</leafValues></_>
        <_>
          <internalNodes>
            0 -1 499 -9.3009806005284190e-04</internalNodes>
          <leafValues>
            3.6838710308074951e-01 -1.9372983276844025e-01</leafValues></_>
        <_>
          <internalNodes>
            0 -1 541 -3.3460345119237900e-02</internalNodes>
          <leafValues>
            -7.1594536304473877e-01 9.2323571443557739e-02</leafValues></_>
        <_>
          <internalNodes>
            0 -1 572 2.6162858121097088e-03</internalNodes>
          <leafValues>
            -1.7973954975605011e-01 3.7088397145271301e-01</leafValues></_>
        <_>
          <internalNodes>
            0 -1 691 3.5604359582066536e-03</internalNodes>
          <leafValues>
            -1.6259464621543884e-01 2.8525355458259583e-01</leafValues></_>
        <_>
          <internalNodes>
            0 -1 37 -3.6939159035682678e-02</internalNodes>
          <leafValues>
            2.7052965760231018e-01 -1.7864568531513214e-01</leafValues></_>
        <_>
          <internalNodes>
            0 -1 129 2.5800019502639771e-02</internalNodes>
          <leafValues>
            -1.0211226344108582e-01 4.9760457873344421e-01</leafValues></_>
        <_>
          <internalNodes>
            0 -1 298 -1.5496669220738113e-04</internalNodes>
          <leafValues>
            -3.3172151446342468e-01 1.5512968599796295e-01</leafValues></_>
        <_>
          <internalNodes>
            0 -1 143 6.5030495170503855e-04</internalNodes>
          <leafValues>
            -1.8401606380939484e-01 2.7521023154258728e-01</leafValues></_>
        <_>
          <internalNodes>
            0 -1 42 -1.3888806104660034e-02</internalNodes>
          <leafValues>
            2.6593437790870667e-01 -1.7472867667675018e-01</leafValues></_>
        <_>
          <internalNodes>
            0 -1 89 -2.6981582865118980e-02</internalNodes>
          <leafValues>
            3.4967744350433350e-01 -1.5181335806846619e-01</leafValues></_>
        <_>
          <internalNodes>
            0 -1 358 -1.1187483556568623e-02</internalNodes>
          <leafValues>
            5.0034242868423462e-01 -1.1470646411180496e-01</leafValues></_>
        <_>
          <internalNodes>
            0 -1 427 1.6091665020212531e-03</internalNodes>
          <leafValues>
            -1.4930869638919830e-01 3.1153932213783264e-01</leafValues></_>
        <_>
          <internalNodes>
            0 -1 426 -2.1707001142203808e-03</internalNodes>
          <leafValues>
            5.2376800775527954e-01 -1.0032177716493607e-01</leafValues></_>
        <_>
          <internalNodes>
            0 -1 202 -5.0996281206607819e-02</internalNodes>
          <leafValues>
            -8.4787148237228394e-01 6.6534593701362610e-02</leafValues></_>
        <_>
          <internalNodes>
            0 -1 119 -3.3256476745009422e-03</internalNodes>
          <leafValues>
            1.6680768132209778e-01 -2.8919005393981934e-01</leafValues></_>
        <_>
          <internalNodes>
            0 -1 548 -6.2734773382544518e-03</internalNodes>
          <leafValues>
            5.6036651134490967e-01 -8.7462291121482849e-02</leafValues></_>
        <_>
          <internalNodes>
            0 -1 630 -1.6378752887248993e-02</internalNodes>
          <leafValues>
            2.3272775113582611e-01 -2.0522849261760712e-01</leafValues></_>
        <_>
          <internalNodes>
            0 -1 600 7.7214266639202833e-04</internalNodes>
          <leafValues>
            -1.7886714637279510e-01 2.8737252950668335e-01</leafValues></_>
        <_>
          <internalNodes>
            0 -1 0 -1.4886252756696194e-04</internalNodes>
          <leafValues>
            -3.0484554171562195e-01 1.5952569246292114e-01</leafValues></_>
        <_>
          <internalNodes>
            0 -1 460 -8.4370318800210953e-03</internalNodes>
          <leafValues>
            5.0710117816925049e-01 -9.7762495279312134e-02</leafValues></_>
        <_>
          <internalNodes>
            0 -1 503 -3.4931595437228680e-03</internalNodes>
          <leafValues>
            3.8191771507263184e-01 -1.2126789242029190e-01</leafValues></_>
        <_>
          <internalNodes>
            0 -1 78 3.9254926145076752e-02</internalNodes>
          <leafValues>
            9.5810256898403168e-02 -5.6194013357162476e-01</leafValues></_></weakClassifiers></_>
    <!-- stage 13 -->
    <_>
      <maxWeakCount>27</maxWeakCount>
      <stageThreshold>-7.0481532812118530e-01</stageThreshold>
      <weakClassifiers>
        <_>
          <internalNodes>
            0 -1 9 -3.8135683536529541e-01</internalNodes>
          <leafValues>
            6.4217251539230347e-01 -1.2706479756161571e-03</leafValues></_>
        <_>
          <internalNodes>
            0 -1 618 7.6246093958616257e-03</internalNodes>
          <leafValues>
            -2.5959786772727966e-01 2.2356429696083069e-01</leafValues></_>
        <_>
          <internalNodes>
            0 -1 177 -3.3919920679181814e-04</internalNodes>
          <leafValues>
            -3.8823157548904419e-01 1.3780876994132996e-01</leafValues></_>
        <_>
          <internalNodes>
            0 -1 626 4.2195071000605822e-04</internalNodes>
          <leafValues>
            1.1442367732524872e-01 -4.1827347874641418e-01</leafValues></_>
        <_>
          <internalNodes>
            0 -1 335 4.2036321246996522e-05</internalNodes>
          <leafValues>
            1.7939826846122742e-01 -2.9801994562149048e-01</leafValues></_>
        <_>
          <internalNodes>
            0 -1 728 4.8512378707528114e-03</internalNodes>
          <leafValues>
            -1.6739864647388458e-01 3.2342821359634399e-01</leafValues></_>
        <_>
          <internalNodes>
            0 -1 526 2.2111348807811737e-03</internalNodes>
          <leafValues>
            9.7705185413360596e-02 -4.5491036772727966e-01</leafValues></_>
        <_>
          <internalNodes>
            0 -1 429 2.2074852138757706e-02</internalNodes>
          <leafValues>
            -6.5665654838085175e-02 6.0033023357391357e-01</leafValues></_>
        <_>
          <internalNodes>
            0 -1 721 -7.1263179415836930e-04</internalNodes>
          <leafValues>
            -5.1775938272476196e-01 9.3354426324367523e-02</leafValues></_>
        <_>
          <internalNodes>
            0 -1 721 8.0043863272294402e-04</internalNodes>
          <leafValues>
            9.4964154064655304e-02 -5.0945550203323364e-01</leafValues></_>
        <_>
          <internalNodes>
            0 -1 48 1.0054036974906921e-02</internalNodes>
          <leafValues>
            -1.3350133597850800e-01 3.5548275709152222e-01</leafValues></_>
        <_>
          <internalNodes>
            0 -1 51 -1.5083335340023041e-02</internalNodes>
          <leafValues>
            2.6677414774894714e-01 -2.0747739076614380e-01</leafValues></_>
        <_>
          <internalNodes>
            0 -1 456 4.1960697853937745e-04</internalNodes>
          <leafValues>
            9.8376587033271790e-02 -4.0448880195617676e-01</leafValues></_>
        <_>
          <internalNodes>
            0 -1 6 -3.0764697585254908e-03</internalNodes>
          <leafValues>
            2.0623137056827545e-01 -2.3008115589618683e-01</leafValues></_>
        <_>
          <internalNodes>
            0 -1 244 6.2230294570326805e-03</internalNodes>
          <leafValues>
            6.2628522515296936e-02 -7.7184712886810303e-01</leafValues></_>
        <_>
          <internalNodes>
            0 -1 653 -1.9142806995660067e-03</internalNodes>
          <leafValues>
            -8.1424331665039063e-01 4.2820677161216736e-02</leafValues></_>
        <_>
          <internalNodes>
            0 -1 482 3.2152354251593351e-03</internalNodes>
          <leafValues>
            -1.3251504302024841e-01 3.4629443287849426e-01</leafValues></_>
        <_>
          <internalNodes>
            0 -1 233 -2.0514726638793945e-02</internalNodes>
          <leafValues>
            6.2913012504577637e-01 -7.6707765460014343e-02</leafValues></_>
        <_>
          <internalNodes>
            0 -1 198 -3.4816049039363861e-02</internalNodes>
          <leafValues>
            -6.5994119644165039e-01 7.4104532599449158e-02</leafValues></_>
        <_>
          <internalNodes>
            0 -1 466 -4.0188138373196125e-03</internalNodes>
          <leafValues>
            8.5365869104862213e-02 -5.4715830087661743e-01</leafValues></_>
        <_>
          <internalNodes>
            0 -1 716 8.7611586786806583e-04</internalNodes>
          <leafValues>
            -1.9347611069679260e-01 2.4457921087741852e-01</leafValues></_>
        <_>
          <internalNodes>
            0 -1 747 -5.5817626416683197e-03</internalNodes>
          <leafValues>
            -3.9036306738853455e-01 1.2627384066581726e-01</leafValues></_>
        <_>
          <internalNodes>
            0 -1 693 2.5357217527925968e-03</internalNodes>
          <leafValues>
            -1.1639823019504547e-01 4.3289986252784729e-01</leafValues></_>
        <_>
          <internalNodes>
            0 -1 18 1.7700139433145523e-03</internalNodes>
          <leafValues>
            8.1307552754878998e-02 -5.6942027807235718e-01</leafValues></_>
        <_>
          <internalNodes>
            0 -1 19 9.0992245823144913e-03</internalNodes>
          <leafValues>
            -1.0033313930034637e-01 5.3414767980575562e-01</leafValues></_>
        <_>
          <internalNodes>
            0 -1 168 2.9905280098319054e-03</internalNodes>
          <leafValues>
            -1.2738899886608124e-01 3.6125046014785767e-01</leafValues></_>
        <_>
          <internalNodes>
            0 -1 29 -1.4870162704028189e-04</internalNodes>
          <leafValues>
            -3.2390785217285156e-01 1.5806812047958374e-01</leafValues></_></weakClassifiers></_>
    <!-- stage 14 -->
    <_>
      <maxWeakCount>30</maxWeakCount>
      <stageThreshold>-7.6769006252288818e-01</stageThreshold>
      <weakClassifiers>
        <_>
          <internalNodes>
            0 -1 457 1.3938520569354296e-03</internalNodes>
          <leafValues>
            2.7427962422370911e-01 -3.4969323873519897e-01</leafValues></_>
        <_>
          <internalNodes>
            0 -1 268 -4.1542746126651764e-02</internalNodes>
          <leafValues>
            4.5386105775833130e-01 -1.2657503783702850e-01</leafValues></_>
        <_>
          <internalNodes>
            0 -1 221 1.4135898090898991e-02</internalNodes>
          <leafValues>
            -1.3971450924873352e-01 4.0046578645706177e-01</leafValues></_>
        <_>
          <internalNodes>
            0 -1 713 -1.4054682105779648e-03</internalNodes>
          <leafValues>
            1.8352515995502472e-01 -2.5311428308486938e-01</leafValues></_>
        <_>
          <internalNodes>
            0 -1 122 1.6437494195997715e-04</internalNodes>
          <leafValues>
            1.4749418199062347e-01 -3.6930167675018311e-01</leafValues></_>
        <_>
          <internalNodes>
            0 -1 561 -1.6133662313222885e-02</internalNodes>
          <leafValues>
            4.3383756279945374e-01 -1.2465299665927887e-01</leafValues></_>
        <_>
          <internalNodes>
            0 -1 604 -1.5585487708449364e-03</internalNodes>
          <leafValues>
            -8.3121788501739502e-01 6.8680040538311005e-02</leafValues></_>
        <_>
          <internalNodes>
            0 -1 522 -1.0869707912206650e-03</internalNodes>
          <leafValues>
            -1.3205312192440033e-01 4.2832618951797485e-01</leafValues></_>
        <_>
          <internalNodes>
            0 -1 586 1.3008795678615570e-02</internalNodes>
          <leafValues>
            -1.8940666317939758e-01 2.4894708395004272e-01</leafValues></_>
        <_>
          <internalNodes>
            0 -1 395 -2.6275112759321928e-03</internalNodes>
          <leafValues>
            -5.2681237459182739e-01 8.4018833935260773e-02</leafValues></_>
        <_>
          <internalNodes>
            0 -1 327 1.0147668421268463e-02</internalNodes>
          <leafValues>
            -8.4914892911911011e-02 5.4011368751525879e-01</leafValues></_>
        <_>
          <internalNodes>
            0 -1 455 3.2562450505793095e-03</internalNodes>
          <leafValues>
            -1.0764437913894653e-01 3.7159395217895508e-01</leafValues></_>
        <_>
          <internalNodes>
            0 -1 612 -1.8091560341417789e-03</internalNodes>
          <leafValues>
            -8.2601958513259888e-01 6.0917001217603683e-02</leafValues></_>
        <_>
          <internalNodes>
            0 -1 203 8.5587962530553341e-04</internalNodes>
          <leafValues>
            -1.9844490289688110e-01 2.2069920599460602e-01</leafValues></_>
        <_>
          <internalNodes>
            0 -1 733 -2.6642531156539917e-03</internalNodes>
          <leafValues>
            4.1637843847274780e-01 -1.0202847421169281e-01</leafValues></_>
        <_>
          <internalNodes>
            0 -1 641 1.5506858471781015e-03</internalNodes>
          <leafValues>
            1.0886860638856888e-01 -4.3375825881958008e-01</leafValues></_>
        <_>
          <internalNodes>
            0 -1 490 1.4000976807437837e-04</internalNodes>
          <leafValues>
            1.5830338001251221e-01 -2.5519320368766785e-01</leafValues></_>
        <_>
          <internalNodes>
            0 -1 407 1.3200238754507154e-04</internalNodes>
          <leafValues>
            1.4512428641319275e-01 -2.6466640830039978e-01</leafValues></_>
        <_>
          <internalNodes>
            0 -1 109 -1.1736570857465267e-02</internalNodes>
          <leafValues>
            4.9343618750572205e-01 -8.3632521331310272e-02</leafValues></_>
        <_>
          <internalNodes>
            0 -1 720 -2.5954085867851973e-04</internalNodes>
          <leafValues>
            -3.9904221892356873e-01 1.1134586483240128e-01</leafValues></_>
        <_>
          <internalNodes>
            0 -1 720 2.1361159160733223e-03</internalNodes>
          <leafValues>
            4.6970590949058533e-02 -7.5398522615432739e-01</leafValues></_>
        <_>
          <internalNodes>
            0 -1 687 1.2803061865270138e-02</internalNodes>
          <leafValues>
            -7.6722629368305206e-02 5.9300976991653442e-01</leafValues></_>
        <_>
          <internalNodes>
            0 -1 76 -1.7643615603446960e-02</internalNodes>
          <leafValues>
            5.3716027736663818e-01 -7.4462905526161194e-02</leafValues></_>
        <_>
          <internalNodes>
            0 -1 573 -1.2823243159800768e-03</internalNodes>
          <leafValues>
            5.2360069751739502e-01 -7.8345760703086853e-02</leafValues></_>
        <_>
          <internalNodes>
            0 -1 547 5.5341050028800964e-03</internalNodes>
          <leafValues>
            -1.1607171595096588e-01 4.1347831487655640e-01</leafValues></_>
        <_>
          <internalNodes>
            0 -1 54 -4.8687672615051270e-01</internalNodes>
          <leafValues>
            -1.5349499881267548e-01 2.8509399294853210e-01</leafValues></_>
        <_>
          <internalNodes>
            0 -1 310 -1.1558479070663452e-01</internalNodes>
          <leafValues>
            2.2799891233444214e-01 -2.3475627601146698e-01</leafValues></_>
        <_>
          <internalNodes>
            0 -1 14 1.4628800563514233e-02</internalNodes>
          <leafValues>
            -1.2457322329282761e-01 4.1197419166564941e-01</leafValues></_>
        <_>
          <internalNodes>
            0 -1 436 -1.2569162994623184e-02</internalNodes>
          <leafValues>
            2.5568696856498718e-01 -1.9513773918151855e-01</leafValues></_>
        <_>
          <internalNodes>
            0 -1 365 -3.4580428618937731e-03</internalNodes>
          <leafValues>
            4.6175318956375122e-01 -1.1518008261919022e-01</leafValues></_></weakClassifiers></_>
    <!-- stage 15 -->
    <_>
      <maxWeakCount>28</maxWeakCount>
      <stageThreshold>-8.1737869977951050e-01</stageThreshold>
      <weakClassifiers>
        <_>
          <internalNodes>
            0 -1 582 -2.1608690731227398e-03</internalNodes>
          <leafValues>
            -1.7981073260307312e-01 3.2822477817535400e-01</leafValues></_>
        <_>
          <internalNodes>
            0 -1 501 -2.5537870824337006e-03</internalNodes>
          <leafValues>
            4.9922230839729309e-01 -1.2313766777515411e-01</leafValues></_>
        <_>
          <internalNodes>
            0 -1 160 -7.0686888648197055e-04</internalNodes>
          <leafValues>
            5.4492670297622681e-01 -1.0339280962944031e-01</leafValues></_>
        <_>
          <internalNodes>
            0 -1 402 -6.4826384186744690e-02</internalNodes>
          <leafValues>
            1.3421650230884552e-01 -4.6103078126907349e-01</leafValues></_>
        <_>
          <internalNodes>
            0 -1 697 3.6908636684529483e-04</internalNodes>
          <leafValues>
            -1.9535663723945618e-01 4.1718590259552002e-01</leafValues></_>
        <_>
          <internalNodes>
            0 -1 697 -3.8089073495939374e-04</internalNodes>
          <leafValues>
            4.6987849473953247e-01 -1.2646764516830444e-01</leafValues></_>
        <_>
          <internalNodes>
            0 -1 515 5.4344926029443741e-03</internalNodes>
          <leafValues>
            -6.8356230854988098e-02 6.8234205245971680e-01</leafValues></_>
        <_>
          <internalNodes>
            0 -1 128 -6.4227036200463772e-03</internalNodes>
          <leafValues>
            -3.5707113146781921e-01 1.4370398223400116e-01</leafValues></_>
        <_>
          <internalNodes>
            0 -1 91 -2.7663055807352066e-03</internalNodes>
          <leafValues>
            4.2097467184066772e-01 -1.3287323713302612e-01</leafValues></_>
        <_>
          <internalNodes>
            0 -1 190 2.9677974060177803e-02</internalNodes>
          <leafValues>
            1.0684238374233246e-01 -7.5382256507873535e-01</leafValues></_>
        <_>
          <internalNodes>
            0 -1 287 4.2803079122677445e-04</internalNodes>
          <leafValues>
            -1.6932933032512665e-01 3.6369109153747559e-01</leafValues></_>
        <_>
          <internalNodes>
            0 -1 169 -4.6374080702662468e-03</internalNodes>
          <leafValues>
            5.2174896001815796e-01 -6.1145119369029999e-02</leafValues></_>
        <_>
          <internalNodes>
            0 -1 288 -2.2556779906153679e-02</internalNodes>
          <leafValues>
            -1.3690857589244843e-01 3.7622267007827759e-01</leafValues></_>
        <_>
          <internalNodes>
            0 -1 738 -2.6894388720393181e-03</internalNodes>
          <leafValues>
            3.9352551102638245e-01 -1.1888445913791656e-01</leafValues></_>
        <_>
          <internalNodes>
            0 -1 393 1.1413320899009705e-02</internalNodes>
          <leafValues>
            -7.8176088631153107e-02 6.4017105102539063e-01</leafValues></_>
        <_>
          <internalNodes>
            0 -1 88 1.4759340556338429e-03</internalNodes>
          <leafValues>
            -1.4372752606868744e-01 3.6004707217216492e-01</leafValues></_>
        <_>
          <internalNodes>
            0 -1 99 -4.2935935780405998e-03</internalNodes>
          <leafValues>
            6.2097412347793579e-01 -1.0561442375183105e-01</leafValues></_>
        <_>
          <internalNodes>
            0 -1 705 3.6482390714809299e-04</internalNodes>
          <leafValues>
            1.4847172796726227e-01 -4.3518957495689392e-01</leafValues></_>
        <_>
          <internalNodes>
            0 -1 655 7.1928778197616339e-04</internalNodes>
          <leafValues>
            -9.9027104675769806e-02 5.3088790178298950e-01</leafValues></_>
        <_>
          <internalNodes>
            0 -1 123 -6.8293215008452535e-05</internalNodes>
          <leafValues>
            -2.9976975917816162e-01 1.7651696503162384e-01</leafValues></_>
        <_>
          <internalNodes>
            0 -1 4 5.0946755800396204e-04</internalNodes>
          <leafValues>
            1.5270800888538361e-01 -3.4047374129295349e-01</leafValues></_>
        <_>
          <internalNodes>
            0 -1 58 3.0250446870923042e-03</internalNodes>
          <leafValues>
            -1.4510385692119598e-01 3.2182121276855469e-01</leafValues></_>
        <_>
          <internalNodes>
            0 -1 725 2.9229796491563320e-03</internalNodes>
          <leafValues>
            -1.3633216917514801e-01 3.7907066941261292e-01</leafValues></_>
        <_>
          <internalNodes>
            0 -1 144 -1.7281599342823029e-02</internalNodes>
          <leafValues>
            5.0758391618728638e-01 -8.3139866590499878e-02</leafValues></_>
        <_>
          <internalNodes>
            0 -1 576 -4.9082993064075708e-04</internalNodes>
          <leafValues>
            -5.6506205350160599e-02 8.6712414026260376e-01</leafValues></_>
        <_>
          <internalNodes>
            0 -1 411 -2.6833301410079002e-02</internalNodes>
          <leafValues>
            1.1541950702667236e-01 -4.9995750188827515e-01</leafValues></_>
        <_>
          <internalNodes>
            0 -1 38 5.1488745957612991e-03</internalNodes>
          <leafValues>
            -7.8294165432453156e-02 6.6950279474258423e-01</leafValues></_>
        <_>
          <internalNodes>
            0 -1 356 4.7537095844745636e-02</internalNodes>
          <leafValues>
            6.7574903368949890e-02 -7.9852819442749023e-01</leafValues></_></weakClassifiers></_>
    <!-- stage 16 -->
    <_>
      <maxWeakCount>32</maxWeakCount>
      <stageThreshold>-6.9265818595886230e-01</stageThreshold>
      <weakClassifiers>
        <_>
          <internalNodes>
            0 -1 478 -1.0559582151472569e-03</internalNodes>
          <leafValues>
            7.0034444332122803e-02 6.0698688030242920e-01</leafValues></_>
        <_>
          <internalNodes>
            0 -1 104 -3.2764156349003315e-03</internalNodes>
          <leafValues>
            1.9206865131855011e-01 -2.3754690587520599e-01</leafValues></_>
        <_>
          <internalNodes>
            0 -1 123 -2.4064669560175389e-04</internalNodes>
          <leafValues>
            -3.5901981592178345e-01 1.1986710876226425e-01</leafValues></_>
        <_>
          <internalNodes>
            0 -1 72 2.4010557681322098e-02</internalNodes>
          <leafValues>
            -1.2915185093879700e-01 6.3173550367355347e-01</leafValues></_>
        <_>
          <internalNodes>
            0 -1 123 2.3660980514250696e-04</internalNodes>
          <leafValues>
            1.9808138906955719e-01 -3.1717181205749512e-01</leafValues></_>
        <_>
          <internalNodes>
            0 -1 734 5.9489286504685879e-03</internalNodes>
          <leafValues>
            -1.5907324850559235e-01 3.0596923828125000e-01</leafValues></_>
        <_>
          <internalNodes>
            0 -1 743 -1.0603718692436814e-03</internalNodes>
          <leafValues>
            3.7545892596244812e-01 -1.0156961530447006e-01</leafValues></_>
        <_>
          <internalNodes>
            0 -1 224 -6.2627233564853668e-03</internalNodes>
          <leafValues>
            2.0576582849025726e-01 -2.1640227735042572e-01</leafValues></_>
        <_>
          <internalNodes>
            0 -1 754 -6.7270849831402302e-04</internalNodes>
          <leafValues>
            -3.8540846109390259e-01 1.4522036910057068e-01</leafValues></_>
        <_>
          <internalNodes>
            0 -1 521 -2.1530291996896267e-03</internalNodes>
          <leafValues>
            3.4702563285827637e-01 -1.5098470449447632e-01</leafValues></_>
        <_>
          <internalNodes>
            0 -1 563 -8.9893952012062073e-02</internalNodes>
          <leafValues>
            -2.0350275933742523e-01 2.1616752445697784e-01</leafValues></_>
        <_>
          <internalNodes>
            0 -1 549 -3.8165797013789415e-04</internalNodes>
          <leafValues>
            2.8589329123497009e-01 -1.7075848579406738e-01</leafValues></_>
        <_>
          <internalNodes>
            0 -1 420 2.0602955482900143e-03</internalNodes>
          <leafValues>
            -1.3055175542831421e-01 3.1820052862167358e-01</leafValues></_>
        <_>
          <internalNodes>
            0 -1 603 -1.2205651728436351e-04</internalNodes>
          <leafValues>
            -3.2647252082824707e-01 1.2709435820579529e-01</leafValues></_>
        <_>
          <internalNodes>
            0 -1 688 6.3643138855695724e-03</internalNodes>
          <leafValues>
            1.0285083204507828e-01 -4.3699061870574951e-01</leafValues></_>
        <_>
          <internalNodes>
            0 -1 504 -3.1363744288682938e-02</internalNodes>
          <leafValues>
            4.0643125772476196e-01 -1.0837519168853760e-01</leafValues></_>
        <_>
          <internalNodes>
            0 -1 120 7.2410795837640762e-04</internalNodes>
          <leafValues>
            -1.7750938236713409e-01 2.4327531456947327e-01</leafValues></_>
        <_>
          <internalNodes>
            0 -1 644 8.5429678438231349e-04</internalNodes>
          <leafValues>
            -1.4127033948898315e-01 3.3552291989326477e-01</leafValues></_>
        <_>
          <internalNodes>
            0 -1 215 -5.0766887143254280e-03</internalNodes>
          <leafValues>
            3.6715787649154663e-01 -1.0975400358438492e-01</leafValues></_>
        <_>
          <internalNodes>
            0 -1 207 -7.2470679879188538e-04</internalNodes>
          <leafValues>
            4.2776873707771301e-01 -9.2057876288890839e-02</leafValues></_>
        <_>
          <internalNodes>
            0 -1 553 -2.9728028457611799e-03</internalNodes>
          <leafValues>
            -6.4315915107727051e-01 8.1304043531417847e-02</leafValues></_>
        <_>
          <internalNodes>
            0 -1 514 -1.9582524895668030e-02</internalNodes>
          <leafValues>
            6.0216534137725830e-01 -8.8860169053077698e-02</leafValues></_>
        <_>
          <internalNodes>
            0 -1 603 1.0154040064662695e-03</internalNodes>
          <leafValues>
            9.8920956254005432e-02 -6.0168939828872681e-01</leafValues></_>
        <_>
          <internalNodes>
            0 -1 746 2.0508226007223129e-03</internalNodes>
          <leafValues>
            -1.0844377428293228e-01 4.8300379514694214e-01</leafValues></_>
        <_>
          <internalNodes>
            0 -1 647 1.0522368829697371e-03</internalNodes>
          <leafValues>
            -1.2869083881378174e-01 2.9108840227127075e-01</leafValues></_>
        <_>
          <internalNodes>
            0 -1 318 2.9236376285552979e-02</internalNodes>
          <leafValues>
            7.7487699687480927e-02 -5.0046414136886597e-01</leafValues></_>
        <_>
          <internalNodes>
            0 -1 567 -3.9766941219568253e-02</internalNodes>
          <leafValues>
            -4.4087952375411987e-01 8.9497767388820648e-02</leafValues></_>
        <_>
          <internalNodes>
            0 -1 207 6.4070010557770729e-04</internalNodes>
          <leafValues>
            -9.2450439929962158e-02 4.1384574770927429e-01</leafValues></_>
        <_>
          <internalNodes>
            0 -1 638 5.3498963825404644e-04</internalNodes>
          <leafValues>
            1.0967566072940826e-01 -3.6316972970962524e-01</leafValues></_>
        <_>
          <internalNodes>
            0 -1 596 3.2190121710300446e-03</internalNodes>
          <leafValues>
            -5.9043295681476593e-02 6.9513696432113647e-01</leafValues></_>
        <_>
          <internalNodes>
            0 -1 433 -1.4626899734139442e-02</internalNodes>
          <leafValues>
            2.2782158851623535e-01 -2.0513510704040527e-01</leafValues></_>
        <_>
          <internalNodes>
            0 -1 81 -6.2866367399692535e-02</internalNodes>
          <leafValues>
            1.0314872115850449e-01 -4.0360307693481445e-01</leafValues></_></weakClassifiers></_>
    <!-- stage 17 -->
    <_>
      <maxWeakCount>33</maxWeakCount>
      <stageThreshold>-7.4422448873519897e-01</stageThreshold>
      <weakClassifiers>
        <_>
          <internalNodes>
            0 -1 113 -1.1252404656261206e-03</internalNodes>
          <leafValues>
            3.9053255319595337e-01 -1.5094339847564697e-01</leafValues></_>
        <_>
          <internalNodes>
            0 -1 435 -1.1584632098674774e-02</internalNodes>
          <leafValues>
            5.2029955387115479e-01 -1.0048863291740417e-01</leafValues></_>
        <_>
          <internalNodes>
            0 -1 339 -3.6425673961639404e-01</internalNodes>
          <leafValues>
            -4.5795968174934387e-01 1.0570804029703140e-01</leafValues></_>
        <_>
          <internalNodes>
            0 -1 474 -1.0348333045840263e-02</internalNodes>
          <leafValues>
            -1.7798255383968353e-01 3.0520966649055481e-01</leafValues></_>
        <_>
          <internalNodes>
            0 -1 255 4.9554242286831141e-04</internalNodes>
          <leafValues>
            1.4230778813362122e-01 -4.1879409551620483e-01</leafValues></_>
        <_>
          <internalNodes>
            0 -1 729 5.1619606092572212e-03</internalNodes>
          <leafValues>
            -1.9897346198558807e-01 2.4017170071601868e-01</leafValues></_>
        <_>
          <internalNodes>
            0 -1 301 9.6085984259843826e-03</internalNodes>
          <leafValues>
            8.3348236978054047e-02 -6.4031928777694702e-01</leafValues></_>
        <_>
          <internalNodes>
            0 -1 263 -7.0039797574281693e-03</internalNodes>
          <leafValues>
            -4.7324815392494202e-01 9.6979640424251556e-02</leafValues></_>
        <_>
          <internalNodes>
            0 -1 366 3.4268395975232124e-03</internalNodes>
          <leafValues>
            -1.1203994601964951e-01 3.9502000808715820e-01</leafValues></_>
        <_>
          <internalNodes>
            0 -1 365 -4.3268175795674324e-03</internalNodes>
          <leafValues>
            4.1149321198463440e-01 -1.0973162949085236e-01</leafValues></_>
        <_>
          <internalNodes>
            0 -1 68 -1.6035468433983624e-04</internalNodes>
          <leafValues>
            2.1966542303562164e-01 -1.8217226862907410e-01</leafValues></_>
        <_>
          <internalNodes>
            0 -1 403 2.3113372735679150e-03</internalNodes>
          <leafValues>
            7.4098594486713409e-02 -5.6714415550231934e-01</leafValues></_>
        <_>
          <internalNodes>
            0 -1 651 3.4933253191411495e-03</internalNodes>
          <leafValues>
            -1.3492324948310852e-01 3.2626539468765259e-01</leafValues></_>
        <_>
          <internalNodes>
            0 -1 151 -2.0463172346353531e-02</internalNodes>
          <leafValues>
            3.7676700949668884e-01 -1.0867709666490555e-01</leafValues></_>
        <_>
          <internalNodes>
            0 -1 566 3.4660473465919495e-03</internalNodes>
          <leafValues>
            9.5705442130565643e-02 -4.4650799036026001e-01</leafValues></_>
        <_>
          <internalNodes>
            0 -1 646 3.3522581215947866e-03</internalNodes>
          <leafValues>
            -2.2522650659084320e-01 1.7283140122890472e-01</leafValues></_>
        <_>
          <internalNodes>
            0 -1 50 8.0432964023202658e-04</internalNodes>
          <leafValues>
            -1.7387564480304718e-01 2.3723301291465759e-01</leafValues></_>
        <_>
          <internalNodes>
            0 -1 181 -3.3516243100166321e-02</internalNodes>
          <leafValues>
            2.7924439311027527e-01 -1.5399999916553497e-01</leafValues></_>
        <_>
          <internalNodes>
            0 -1 627 -4.1843440383672714e-02</internalNodes>
          <leafValues>
            -6.5023672580718994e-01 6.0303173959255219e-02</leafValues></_>
        <_>
          <internalNodes>
            0 -1 731 -1.7958302050828934e-02</internalNodes>
          <leafValues>
            9.5218658447265625e-02 -4.3366533517837524e-01</leafValues></_>
        <_>
          <internalNodes>
            0 -1 105 1.7232823884114623e-03</internalNodes>
          <leafValues>
            -1.4399974048137665e-01 2.8511992096900940e-01</leafValues></_>
        <_>
          <internalNodes>
            0 -1 484 -3.5873174667358398e-02</internalNodes>
          <leafValues>
            3.9211651682853699e-01 -1.0210072994232178e-01</leafValues></_>
        <_>
          <internalNodes>
            0 -1 625 -3.1933543505147099e-04</internalNodes>
          <leafValues>
            -3.8845747709274292e-01 1.1290998756885529e-01</leafValues></_>
        <_>
          <internalNodes>
            0 -1 635 9.0979542583227158e-03</internalNodes>
          <leafValues>
            8.7592512369155884e-02 -4.1769778728485107e-01</leafValues></_>
        <_>
          <internalNodes>
            0 -1 148 5.3868304938077927e-02</internalNodes>
          <leafValues>
            -8.5536949336528778e-02 5.0563943386077881e-01</leafValues></_>
        <_>
          <internalNodes>
            0 -1 61 5.8457981795072556e-03</internalNodes>
          <leafValues>
            -7.3965512216091156e-02 5.3495419025421143e-01</leafValues></_>
        <_>
          <internalNodes>
            0 -1 545 2.3355963639914989e-03</internalNodes>
          <leafValues>
            -6.7140720784664154e-02 4.8737475275993347e-01</leafValues></_>
        <_>
          <internalNodes>
            0 -1 476 -4.8526739701628685e-03</internalNodes>
          <leafValues>
            -5.1579792052507401e-02 6.6303914785385132e-01</leafValues></_>
        <_>
          <internalNodes>
            0 -1 324 2.9503647238016129e-03</internalNodes>
          <leafValues>
            -8.8053271174430847e-02 4.3376457691192627e-01</leafValues></_>
        <_>
          <internalNodes>
            0 -1 63 -1.5562332700937986e-03</internalNodes>
          <leafValues>
            -3.8914996385574341e-01 1.0379749536514282e-01</leafValues></_>
        <_>
          <internalNodes>
            0 -1 67 2.6390766724944115e-02</internalNodes>
          <leafValues>
            -9.9848777055740356e-02 3.9803618192672729e-01</leafValues></_>
        <_>
          <internalNodes>
            0 -1 558 -3.1994841992855072e-04</internalNodes>
          <leafValues>
            2.5790947675704956e-01 -1.8729898333549500e-01</leafValues></_>
        <_>
          <internalNodes>
            0 -1 238 4.9321851693093777e-03</internalNodes>
          <leafValues>
            1.3410520553588867e-01 -3.0556452274322510e-01</leafValues></_></weakClassifiers></_>
    <!-- stage 18 -->
    <_>
      <maxWeakCount>37</maxWeakCount>
      <stageThreshold>-7.2368961572647095e-01</stageThreshold>
      <weakClassifiers>
        <_>
          <internalNodes>
            0 -1 135 -6.7470252513885498e-02</internalNodes>
          <leafValues>
            3.6585366725921631e-01 -9.0090088546276093e-02</leafValues></_>
        <_>
          <internalNodes>
            0 -1 752 -3.4015681012533605e-04</internalNodes>
          <leafValues>
            -4.0365222096443176e-01 1.3573303818702698e-01</leafValues></_>
        <_>
          <internalNodes>
            0 -1 222 2.8383711469359696e-04</internalNodes>
          <leafValues>
            1.0465866327285767e-01 -4.3141466379165649e-01</leafValues></_>
        <_>
          <internalNodes>
            0 -1 652 -6.0342578217387199e-04</internalNodes>
          <leafValues>
            -5.1262360811233521e-01 8.9699052274227142e-02</leafValues></_>
        <_>
          <internalNodes>
            0 -1 0 2.1010360796935856e-04</internalNodes>
          <leafValues>
            1.2753802537918091e-01 -3.0553555488586426e-01</leafValues></_>
        <_>
          <internalNodes>
            0 -1 568 9.1047195019200444e-04</internalNodes>
          <leafValues>
            -2.1649359166622162e-01 1.7745298147201538e-01</leafValues></_>
        <_>
          <internalNodes>
            0 -1 130 -3.4244820475578308e-02</internalNodes>
          <leafValues>
            3.1732702255249023e-01 -1.2473386526107788e-01</leafValues></_>
        <_>
          <internalNodes>
            0 -1 228 3.0918519943952560e-02</internalNodes>
          <leafValues>
            -7.9843871295452118e-02 4.8534825444221497e-01</leafValues></_>
        <_>
          <internalNodes>
            0 -1 178 7.1095977909862995e-04</internalNodes>
          <leafValues>
            7.4822410941123962e-02 -4.9172347784042358e-01</leafValues></_>
        <_>
          <internalNodes>
            0 -1 162 -6.0672336257994175e-04</internalNodes>
          <leafValues>
            2.0236596465110779e-01 -2.0855195820331573e-01</leafValues></_>
        <_>
          <internalNodes>
            0 -1 642 -3.6923997104167938e-02</internalNodes>
          <leafValues>
            2.7329716086387634e-01 -1.4814367890357971e-01</leafValues></_>
        <_>
          <internalNodes>
            0 -1 736 -9.3744266778230667e-03</internalNodes>
          <leafValues>
            7.0493209362030029e-01 -4.8779431730508804e-02</leafValues></_>
        <_>
          <internalNodes>
            0 -1 714 4.3409359641373158e-03</internalNodes>
          <leafValues>
            -1.4405627548694611e-01 2.4238680303096771e-01</leafValues></_>
        <_>
          <internalNodes>
            0 -1 7 7.9021587967872620e-02</internalNodes>
          <leafValues>
            -8.0371163785457611e-02 4.8099663853645325e-01</leafValues></_>
        <_>
          <internalNodes>
            0 -1 374 1.2340683024376631e-03</internalNodes>
          <leafValues>
            1.0162010043859482e-01 -3.9508566260337830e-01</leafValues></_>
        <_>
          <internalNodes>
            0 -1 583 7.0555636193603277e-04</internalNodes>
          <leafValues>
            -1.8603806197643280e-01 2.0335593819618225e-01</leafValues></_>
        <_>
          <internalNodes>
            0 -1 570 1.0879025794565678e-03</internalNodes>
          <leafValues>
            6.5486401319503784e-02 -5.4888546466827393e-01</leafValues></_>
        <_>
          <internalNodes>
            0 -1 456 3.1612595194019377e-04</internalNodes>
          <leafValues>
            1.0117476433515549e-01 -3.7002953886985779e-01</leafValues></_>
        <_>
          <internalNodes>
            0 -1 312 -6.4122825860977173e-02</internalNodes>
          <leafValues>
            2.2714120149612427e-01 -1.6396120190620422e-01</leafValues></_>
        <_>
          <internalNodes>
            0 -1 471 -1.1434428393840790e-02</internalNodes>
          <leafValues>
            5.8767233043909073e-02 -6.2398487329483032e-01</leafValues></_>
        <_>
          <internalNodes>
            0 -1 179 4.2576557025313377e-03</internalNodes>
          <leafValues>
            -1.2058704346418381e-01 3.4437802433967590e-01</leafValues></_>
        <_>
          <internalNodes>
            0 -1 140 -1.1821553343906999e-03</internalNodes>
          <leafValues>
            2.8342789411544800e-01 -1.6267985105514526e-01</leafValues></_>
        <_>
          <internalNodes>
            0 -1 300 -2.2758666425943375e-02</internalNodes>
          <leafValues>
            -7.0925647020339966e-01 5.3677652031183243e-02</leafValues></_>
        <_>
          <internalNodes>
            0 -1 182 6.0186982154846191e-02</internalNodes>
          <leafValues>
            -1.0205676406621933e-01 4.3468070030212402e-01</leafValues></_>
        <_>
          <internalNodes>
            0 -1 753 6.6093623172491789e-04</internalNodes>
          <leafValues>
            1.0122898221015930e-01 -3.7688723206520081e-01</leafValues></_>
        <_>
          <internalNodes>
            0 -1 619 -3.4831487573683262e-03</internalNodes>
          <leafValues>
            6.5781283378601074e-01 -5.7866420596837997e-02</leafValues></_>
        <_>
          <internalNodes>
            0 -1 114 3.1191224697977304e-03</internalNodes>
          <leafValues>
            -1.2491126358509064e-01 3.0250388383865356e-01</leafValues></_>
        <_>
          <internalNodes>
            0 -1 286 2.0365588366985321e-02</internalNodes>
          <leafValues>
            -4.4029921293258667e-02 8.0640584230422974e-01</leafValues></_>
        <_>
          <internalNodes>
            0 -1 445 1.2982091866433620e-03</internalNodes>
          <leafValues>
            -9.2369429767131805e-02 3.7209388613700867e-01</leafValues></_>
        <_>
          <internalNodes>
            0 -1 87 -1.3038758188486099e-02</internalNodes>
          <leafValues>
            -3.9329683780670166e-01 1.0761028528213501e-01</leafValues></_>
        <_>
          <internalNodes>
            0 -1 461 -3.5000580549240112e-01</internalNodes>
          <leafValues>
            1.6607417166233063e-01 -2.5118061900138855e-01</leafValues></_>
        <_>
          <internalNodes>
            0 -1 381 -1.2064549326896667e-01</internalNodes>
          <leafValues>
            6.9869172573089600e-01 -5.0316397100687027e-02</leafValues></_>
        <_>
          <internalNodes>
            0 -1 409 -7.5034156441688538e-02</internalNodes>
          <leafValues>
            -1.5477788448333740e-01 2.2921182215213776e-01</leafValues></_>
        <_>
          <internalNodes>
            0 -1 674 -1.0993113741278648e-02</internalNodes>
          <leafValues>
            6.3975274562835693e-02 -5.6193625926971436e-01</leafValues></_>
        <_>
          <internalNodes>
            0 -1 243 2.3664519190788269e-02</internalNodes>
          <leafValues>
            -6.3639588654041290e-02 6.0333490371704102e-01</leafValues></_>
        <_>
          <internalNodes>
            0 -1 658 1.9896079902537167e-04</internalNodes>
          <leafValues>
            1.3376112282276154e-01 -3.0800944566726685e-01</leafValues></_>
        <_>
          <internalNodes>
            0 -1 256 2.4984273477457464e-04</internalNodes>
          <leafValues>
            1.1755128949880600e-01 -3.1796213984489441e-01</leafValues></_></weakClassifiers></_>
    <!-- stage 19 -->
    <_>
      <maxWeakCount>29</maxWeakCount>
      <stageThreshold>-7.6466029882431030e-01</stageThreshold>
      <weakClassifiers>
        <_>
          <internalNodes>
            0 -1 166 4.9839878920465708e-04</internalNodes>
          <leafValues>
            5.8823529630899429e-02 5.6554305553436279e-01</leafValues></_>
        <_>
          <internalNodes>
            0 -1 494 6.3605257309973240e-04</internalNodes>
          <leafValues>
            -8.3325944840908051e-02 5.1221877336502075e-01</leafValues></_>
        <_>
          <internalNodes>
            0 -1 493 -2.4920338764786720e-03</internalNodes>
          <leafValues>
            4.5030412077903748e-01 -1.1291770637035370e-01</leafValues></_>
        <_>
          <internalNodes>
            0 -1 294 -2.4699275381863117e-03</internalNodes>
          <leafValues>
            -1.3437043130397797e-01 4.3527650833129883e-01</leafValues></_>
        <_>
          <internalNodes>
            0 -1 730 1.0473864153027534e-02</internalNodes>
          <leafValues>
            -6.1887331306934357e-02 6.0961568355560303e-01</leafValues></_>
        <_>
          <internalNodes>
            0 -1 124 -1.0824753553606570e-04</internalNodes>
          <leafValues>
            -2.7065584063529968e-01 1.8493787944316864e-01</leafValues></_>
        <_>
          <internalNodes>
            0 -1 62 6.3386387191712856e-03</internalNodes>
          <leafValues>
            -1.0502061992883682e-01 4.9931678175926208e-01</leafValues></_>
        <_>
          <internalNodes>
            0 -1 11 2.0408492535352707e-02</internalNodes>
          <leafValues>
            9.7015194594860077e-02 -5.3694045543670654e-01</leafValues></_>
        <_>
          <internalNodes>
            0 -1 735 8.1745861098170280e-03</internalNodes>
          <leafValues>
            -9.3327730894088745e-02 4.3521815538406372e-01</leafValues></_>
        <_>
          <internalNodes>
            0 -1 40 -9.4483215361833572e-03</internalNodes>
          <leafValues>
            5.7824689149856567e-01 -7.6903052628040314e-02</leafValues></_>
        <_>
          <internalNodes>
            0 -1 424 1.6989102587103844e-03</internalNodes>
          <leafValues>
            -8.1167779862880707e-02 4.8548793792724609e-01</leafValues></_>
        <_>
          <internalNodes>
            0 -1 662 -1.1988898366689682e-01</internalNodes>
          <leafValues>
            -3.1300887465476990e-01 1.6701231896877289e-01</leafValues></_>
        <_>
          <internalNodes>
            0 -1 304 -1.1197565123438835e-02</internalNodes>
          <leafValues>
            -4.2577639222145081e-01 1.2818107008934021e-01</leafValues></_>
        <_>
          <internalNodes>
            0 -1 274 -1.0137781500816345e-03</internalNodes>
          <leafValues>
            5.8176130056381226e-01 -1.0024382174015045e-01</leafValues></_>
        <_>
          <internalNodes>
            0 -1 502 -3.8247192278504372e-03</internalNodes>
          <leafValues>
            4.1037517786026001e-01 -8.8039927184581757e-02</leafValues></_>
        <_>
          <internalNodes>
            0 -1 221 -8.1847030669450760e-03</internalNodes>
          <leafValues>
            4.3104627728462219e-01 -1.2065655738115311e-01</leafValues></_>
        <_>
          <internalNodes>
            0 -1 701 1.2625036761164665e-03</internalNodes>
          <leafValues>
            -7.8363165259361267e-02 4.2373245954513550e-01</leafValues></_>
        <_>
          <internalNodes>
            0 -1 239 -4.5988425612449646e-02</internalNodes>
          <leafValues>
            -5.5004280805587769e-01 8.8793143630027771e-02</leafValues></_>
        <_>
          <internalNodes>
            0 -1 536 7.9366797581315041e-04</internalNodes>
          <leafValues>
            1.4226160943508148e-01 -3.2211923599243164e-01</leafValues></_>
        <_>
          <internalNodes>
            0 -1 443 1.9444082863628864e-03</internalNodes>
          <leafValues>
            -9.6786804497241974e-02 5.4965519905090332e-01</leafValues></_>
        <_>
          <internalNodes>
            0 -1 419 -2.2758541163057089e-03</internalNodes>
          <leafValues>
            6.7273110151290894e-01 -6.6194511950016022e-02</leafValues></_>
        <_>
          <internalNodes>
            0 -1 12 1.9601982086896896e-02</internalNodes>
          <leafValues>
            -3.8718745112419128e-02 7.8963500261306763e-01</leafValues></_>
        <_>
          <internalNodes>
            0 -1 616 -2.9468312859535217e-02</internalNodes>
          <leafValues>
            -3.0536597967147827e-01 1.5268073976039886e-01</leafValues></_>
        <_>
          <internalNodes>
            0 -1 139 4.7177998349070549e-03</internalNodes>
          <leafValues>
            -1.4181432127952576e-01 3.6143910884857178e-01</leafValues></_>
        <_>
          <internalNodes>
            0 -1 83 5.5846767500042915e-03</internalNodes>
          <leafValues>
            -5.5458933115005493e-02 7.0280939340591431e-01</leafValues></_>
        <_>
          <internalNodes>
            0 -1 506 -2.1509025245904922e-03</internalNodes>
          <leafValues>
            -2.8243222832679749e-01 1.5165235102176666e-01</leafValues></_>
        <_>
          <internalNodes>
            0 -1 150 -2.5555748492479324e-02</internalNodes>
          <leafValues>
            1.2207394093275070e-01 -3.4926414489746094e-01</leafValues></_>
        <_>
          <internalNodes>
            0 -1 222 1.4355281018652022e-04</internalNodes>
          <leafValues>
            1.0465955734252930e-01 -3.7743532657623291e-01</leafValues></_>
        <_>
          <internalNodes>
            0 -1 259 1.0683685541152954e-03</internalNodes>
          <leafValues>
            -9.8221451044082642e-02 4.6939083933830261e-01</leafValues></_></weakClassifiers></_>
    <!-- stage 20 -->
    <_>
      <maxWeakCount>26</maxWeakCount>
      <stageThreshold>-8.5007435083389282e-01</stageThreshold>
      <weakClassifiers>
        <_>
          <internalNodes>
            0 -1 189 -5.6309694051742554e-01</internalNodes>
          <leafValues>
            -8.5000002384185791e-01 2.6274511218070984e-01</leafValues></_>
        <_>
          <internalNodes>
            0 -1 287 4.3716270010918379e-04</internalNodes>
          <leafValues>
            -1.0920119285583496e-01 5.4162180423736572e-01</leafValues></_>
        <_>
          <internalNodes>
            0 -1 164 6.4567022491246462e-04</internalNodes>
          <leafValues>
            -1.0802567005157471e-01 5.4204833507537842e-01</leafValues></_>
        <_>
          <internalNodes>
            0 -1 164 -6.0771848075091839e-04</internalNodes>
          <leafValues>
            3.9581376314163208e-01 -1.3112053275108337e-01</leafValues></_>
        <_>
          <internalNodes>
            0 -1 200 -2.1896999329328537e-02</internalNodes>
          <leafValues>
            -7.0944827795028687e-01 7.5677573680877686e-02</leafValues></_>
        <_>
          <internalNodes>
            0 -1 598 1.0367737850174308e-03</internalNodes>
          <leafValues>
            -1.2104852497577667e-01 6.7347472906112671e-01</leafValues></_>
        <_>
          <internalNodes>
            0 -1 529 6.8446705117821693e-03</internalNodes>
          <leafValues>
            -1.5372420661151409e-02 8.4062629938125610e-01</leafValues></_>
        <_>
          <internalNodes>
            0 -1 554 -6.5391222015023232e-03</internalNodes>
          <leafValues>
            -5.4044538736343384e-01 1.0097421705722809e-01</leafValues></_>
        <_>
          <internalNodes>
            0 -1 498 -4.8761250218376517e-04</internalNodes>
          <leafValues>
            3.7723958492279053e-01 -1.5509858727455139e-01</leafValues></_>
        <_>
          <internalNodes>
            0 -1 497 -7.3470277711749077e-03</internalNodes>
          <leafValues>
            -1.4628334343433380e-01 3.1491944193840027e-01</leafValues></_>
        <_>
          <internalNodes>
            0 -1 551 2.8769918717443943e-03</internalNodes>
          <leafValues>
            -1.4006905257701874e-01 4.9073061347007751e-01</leafValues></_>
        <_>
          <internalNodes>
            0 -1 678 -8.2241150084882975e-04</internalNodes>
          <leafValues>
            5.7214838266372681e-01 -7.6847076416015625e-02</leafValues></_>
        <_>
          <internalNodes>
            0 -1 338 -3.6049298942089081e-03</internalNodes>
          <leafValues>
            3.1699639558792114e-01 -1.6019099950790405e-01</leafValues></_>
        <_>
          <internalNodes>
            0 -1 283 -2.8259868267923594e-03</internalNodes>
          <leafValues>
            5.2438324689865112e-01 -8.8762655854225159e-02</leafValues></_>
        <_>
          <internalNodes>
            0 -1 652 7.8228255733847618e-04</internalNodes>
          <leafValues>
            1.3295775651931763e-01 -4.6540999412536621e-01</leafValues></_>
        <_>
          <internalNodes>
            0 -1 645 -2.1260138601064682e-03</internalNodes>
          <leafValues>
            5.8421277999877930e-01 -1.1367107927799225e-01</leafValues></_>
        <_>
          <internalNodes>
            0 -1 748 -7.6965922489762306e-03</internalNodes>
          <leafValues>
            -5.4022777080535889e-01 1.0159774124622345e-01</leafValues></_>
        <_>
          <internalNodes>
            0 -1 398 -6.2505877576768398e-03</internalNodes>
          <leafValues>
            5.0708121061325073e-01 -1.1190357059240341e-01</leafValues></_>
        <_>
          <internalNodes>
            0 -1 661 2.3383176885545254e-03</internalNodes>
          <leafValues>
            -5.8939129114151001e-02 7.2763997316360474e-01</leafValues></_>
        <_>
          <internalNodes>
            0 -1 593 2.4569554254412651e-02</internalNodes>
          <leafValues>
            9.1477073729038239e-02 -5.6273949146270752e-01</leafValues></_>
        <_>
          <internalNodes>
            0 -1 620 -3.4847861388698220e-04</internalNodes>
          <leafValues>
            3.6619031429290771e-01 -1.3513259589672089e-01</leafValues></_>
        <_>
          <internalNodes>
            0 -1 708 -1.8352571350988001e-04</internalNodes>
          <leafValues>
            -3.3653682470321655e-01 1.7159287631511688e-01</leafValues></_>
        <_>
          <internalNodes>
            0 -1 671 5.6754108518362045e-03</internalNodes>
          <leafValues>
            -7.6197221875190735e-02 6.7522448301315308e-01</leafValues></_>
        <_>
          <internalNodes>
            0 -1 706 -1.5653719310648739e-04</internalNodes>
          <leafValues>
            -2.6702255010604858e-01 1.7182929813861847e-01</leafValues></_>
        <_>
          <internalNodes>
            0 -1 316 2.8065044432878494e-02</internalNodes>
          <leafValues>
            9.2521838843822479e-02 -5.7030349969863892e-01</leafValues></_>
        <_>
          <internalNodes>
            0 -1 430 2.8373330133035779e-04</internalNodes>
          <leafValues>
            9.8580941557884216e-02 -4.3775093555450439e-01</leafValues></_></weakClassifiers></_>
    <!-- stage 21 -->
    <_>
      <maxWeakCount>39</maxWeakCount>
      <stageThreshold>-7.0316267013549805e-01</stageThreshold>
      <weakClassifiers>
        <_>
          <internalNodes>
            0 -1 84 -4.5126257464289665e-03</internalNodes>
          <leafValues>
            4.7338935732841492e-01 4.1722744703292847e-02</leafValues></_>
        <_>
          <internalNodes>
            0 -1 754 3.8204839802347124e-04</internalNodes>
          <leafValues>
            1.1686619371175766e-01 -3.5014858841896057e-01</leafValues></_>
        <_>
          <internalNodes>
            0 -1 293 8.7622751016169786e-04</internalNodes>
          <leafValues>
            -1.4679569005966187e-01 2.4850295484066010e-01</leafValues></_>
        <_>
          <internalNodes>
            0 -1 505 -8.1037305295467377e-02</internalNodes>
          <leafValues>
            4.1511437296867371e-01 -8.7900660932064056e-02</leafValues></_>
        <_>
          <internalNodes>
            0 -1 321 -3.9261065423488617e-02</internalNodes>
          <leafValues>
            1.3803786039352417e-01 -2.6802483201026917e-01</leafValues></_>
        <_>
          <internalNodes>
            0 -1 491 -3.1701531261205673e-02</internalNodes>
          <leafValues>
            -2.5661882758140564e-01 1.2582702934741974e-01</leafValues></_>
        <_>
          <internalNodes>
            0 -1 55 6.5048430114984512e-03</internalNodes>
          <leafValues>
            -6.0330145061016083e-02 5.0900399684906006e-01</leafValues></_>
        <_>
          <internalNodes>
            0 -1 361 -2.9428368434309959e-03</internalNodes>
          <leafValues>
            2.4959719181060791e-01 -1.3351486623287201e-01</leafValues></_>
        <_>
          <internalNodes>
            0 -1 574 4.9576419405639172e-04</internalNodes>
          <leafValues>
            -1.7340502142906189e-01 2.4306920170783997e-01</leafValues></_>
        <_>
          <internalNodes>
            0 -1 450 -3.2499744556844234e-03</internalNodes>
          <leafValues>
            3.4129238128662109e-01 -9.6675090491771698e-02</leafValues></_>
        <_>
          <internalNodes>
            0 -1 96 -2.0828787237405777e-03</internalNodes>
          <leafValues>
            -3.7317875027656555e-01 9.1779142618179321e-02</leafValues></_>
        <_>
          <internalNodes>
            0 -1 3 3.7451330572366714e-03</internalNodes>
          <leafValues>
            7.3780633509159088e-02 -6.5704792737960815e-01</leafValues></_>
        <_>
          <internalNodes>
            0 -1 0 -1.6824624617584050e-04</internalNodes>
          <leafValues>
            -3.2256540656089783e-01 1.0826496779918671e-01</leafValues></_>
        <_>
          <internalNodes>
            0 -1 603 -1.9902887288480997e-04</internalNodes>
          <leafValues>
            -3.2732686400413513e-01 8.2301974296569824e-02</leafValues></_>
        <_>
          <internalNodes>
            0 -1 680 -7.1957759791985154e-04</internalNodes>
          <leafValues>
            4.4843837618827820e-01 -7.7515937387943268e-02</leafValues></_>
