<?xml version="1.0"?>
<opencv_storage>
<stage1>
  <maxWeakCount>11</maxWeakCount>
  <stageThreshold>-1.0117419958114624e+00</stageThreshold>
  <weakClassifiers>
    <_>
      <internalNodes>
        0 -1 56915 -3.6767822504043579e-01</internalNodes>
      <leafValues>
        -6.4673912525177002e-01 5.9836065769195557e-01</leafValues></_>
    <_>
      <internalNodes>
        0 -1 43647 -2.9420489072799683e-01</internalNodes>
      <leafValues>
        -2.5694486498832703e-01 7.3685365915298462e-01</leafValues></_>
    <_>
      <internalNodes>
        0 -1 77779 -3.5233221948146820e-02</internalNodes>
      <leafValues>
        3.8134008646011353e-01 -3.6892142891883850e-01</leafValues></_>
    <_>
      <internalNodes>
        0 -1 50246 -5.4319072514772415e-02</internalNodes>
      <leafValues>
        5.0203239917755127e-01 -2.8036436438560486e-01</leafValues></_>
    <_>
      <internalNodes>
        0 -1 70532 -2.6621833443641663e-02</internalNodes>
      <leafValues>
        7.8534674644470215e-01 -1.6549718379974365e-01</leafValues></_>
    <_>
      <internalNodes>
        0 -1 60548 -1.1246237158775330e-01</internalNodes>
      <leafValues>
        -7.0423787832260132e-01 1.9207146763801575e-01</leafValues></_>
    <_>
      <internalNodes>
        0 -1 37940 1.0284789837896824e-02</internalNodes>
      <leafValues>
        -1.6557943820953369e-01 7.8652811050415039e-01</leafValues></_>
    <_>
      <internalNodes>
        0 -1 158868 2.5393646210432053e-02</internalNodes>
      <leafValues>
        -1.6182520985603333e-01 6.3102978467941284e-01</leafValues></_>
    <_>
      <internalNodes>
        0 -1 88031 -1.5040755271911621e-02</internalNodes>
      <leafValues>
        4.8483285307884216e-01 -2.0754452049732208e-01</leafValues></_>
    <_>
      <internalNodes>
        0 -1 97524 -3.4837566316127777e-02</internalNodes>
      <leafValues>
        -1.4993599057197571e-01 6.6717326641082764e-01</leafValues></_>
    <_>
      <internalNodes>
        0 -1 38850 2.8604505583643913e-02</internalNodes>
      <leafValues>
        -1.2918755412101746e-01 6.4183855056762695e-01</leafValues></_></weakClassifiers></stage1>
</opencv_storage>
