<?xml version="1.0"?>
<opencv_storage>
<stage25>
  <maxWeakCount>36</maxWeakCount>
  <stageThreshold>-6.3396620750427246e-01</stageThreshold>
  <weakClassifiers>
    <_>
      <internalNodes>
        0 -1 81 8.2818663213402033e-04</internalNodes>
      <leafValues>
        2.6579520106315613e-01 -2.4175824224948883e-01</leafValues></_>
    <_>
      <internalNodes>
        0 -1 1167 -8.4984879940748215e-03</internalNodes>
      <leafValues>
        3.4249106049537659e-01 -9.3521952629089355e-02</leafValues></_>
    <_>
      <internalNodes>
        0 -1 161063 5.6477438192814589e-04</internalNodes>
      <leafValues>
        -9.7486883401870728e-02 3.4730044007301331e-01</leafValues></_>
    <_>
      <internalNodes>
        0 -1 60842 9.5602851361036301e-03</internalNodes>
      <leafValues>
        -1.0698036849498749e-01 3.6436182260513306e-01</leafValues></_>
    <_>
      <internalNodes>
        0 -1 161063 -3.1910490361042321e-04</internalNodes>
      <leafValues>
        2.6365983486175537e-01 -1.5500599145889282e-01</leafValues></_>
    <_>
      <internalNodes>
        0 -1 74068 -1.0459795594215393e-01</internalNodes>
      <leafValues>
        -2.0228868722915649e-01 1.9513662159442902e-01</leafValues></_>
    <_>
      <internalNodes>
        0 -1 114191 -1.2313178740441799e-04</internalNodes>
      <leafValues>
        2.1820956468582153e-01 -1.8004180490970612e-01</leafValues></_>
    <_>
      <internalNodes>
        0 -1 160179 5.3236656822264194e-04</internalNodes>
      <leafValues>
        -1.1366914212703705e-01 3.7559670209884644e-01</leafValues></_>
    <_>
      <internalNodes>
        0 -1 157600 8.3095204900018871e-05</internalNodes>
      <leafValues>
        1.3001076877117157e-01 -2.6569798588752747e-01</leafValues></_>
    <_>
      <internalNodes>
        0 -1 89701 1.4675925485789776e-03</internalNodes>
      <leafValues>
        -9.9480740725994110e-02 3.1112027168273926e-01</leafValues></_>
    <_>
      <internalNodes>
        0 -1 12241 -2.0235341507941484e-03</internalNodes>
      <leafValues>
        4.1346120834350586e-01 -8.3533763885498047e-02</leafValues></_>
    <_>
      <internalNodes>
        0 -1 137993 4.0776439011096954e-02</internalNodes>
      <leafValues>
        7.6965771615505219e-02 -4.5077288150787354e-01</leafValues></_>
    <_>
      <internalNodes>
        0 -1 89792 6.7715635523200035e-03</internalNodes>
      <leafValues>
        -7.4712358415126801e-02 4.5986852049827576e-01</leafValues></_>
    <_>
      <internalNodes>
        0 -1 139228 4.7130900202319026e-04</internalNodes>
      <leafValues>
        9.1953426599502563e-02 -3.9355808496475220e-01</leafValues></_>
    <_>
      <internalNodes>
        0 -1 139228 -3.0305871041491628e-04</internalNodes>
      <leafValues>
        -3.5589027404785156e-01 1.0506425052881241e-01</leafValues></_>
    <_>
      <internalNodes>
        0 -1 161947 1.7468256410211325e-03</internalNodes>
      <leafValues>
        -1.1995955556631088e-01 3.0969759821891785e-01</leafValues></_>
    <_>
      <internalNodes>
        0 -1 144593 -2.4992802646011114e-03</internalNodes>
      <leafValues>
        4.4716793298721313e-01 -5.9353210031986237e-02</leafValues></_>
    <_>
      <internalNodes>
        0 -1 150715 -9.6003059297800064e-03</internalNodes>
      <leafValues>
        -6.8274801969528198e-01 4.8061504960060120e-02</leafValues></_>
    <_>
      <internalNodes>
        0 -1 161749 2.0975829102098942e-03</internalNodes>
      <leafValues>
        -8.3242803812026978e-02 4.7888347506523132e-01</leafValues></_>
    <_>
      <internalNodes>
        0 -1 107177 -8.9923748746514320e-03</internalNodes>
      <leafValues>
        3.9026492834091187e-01 -7.9568997025489807e-02</leafValues></_>
    <_>
      <internalNodes>
        0 -1 157506 -1.9616724457591772e-03</internalNodes>
      <leafValues>
        4.7784781455993652e-01 -7.4635848402976990e-02</leafValues></_>
    <_>
      <internalNodes>
        0 -1 133126 5.2765486761927605e-03</internalNodes>
      <leafValues>
        -3.1041031703352928e-02 8.2459670305252075e-01</leafValues></_>
    <_>
      <internalNodes>
        0 -1 94815 -1.4048082448425703e-05</internalNodes>
      <leafValues>
        1.8700712919235229e-01 -1.6441322863101959e-01</leafValues></_>
    <_>
      <internalNodes>
        0 -1 110300 -3.8895979523658752e-03</internalNodes>
      <leafValues>
        -4.6759164333343506e-01 7.2654746472835541e-02</leafValues></_>
    <_>
      <internalNodes>
        0 -1 159696 -1.9777718931436539e-02</internalNodes>
      <leafValues>
        -2.6395758986473083e-01 1.1705232411623001e-01</leafValues></_>
    <_>
      <internalNodes>
        0 -1 159643 6.4690329600125551e-04</internalNodes>
      <leafValues>
        -9.4674013555049896e-02 3.3960166573524475e-01</leafValues></_>
    <_>
      <internalNodes>
        0 -1 69730 -7.4784249067306519e-02</internalNodes>
      <leafValues>
        -5.0938129425048828e-01 6.5932884812355042e-02</leafValues></_>
    <_>
      <internalNodes>
        0 -1 120759 -5.8758519589900970e-03</internalNodes>
      <leafValues>
        6.7707663774490356e-01 -5.4471023380756378e-02</leafValues></_>
    <_>
      <internalNodes>
        0 -1 149212 -3.2729210215620697e-04</internalNodes>
      <leafValues>
        2.5739461183547974e-01 -1.2796431779861450e-01</leafValues></_>
    <_>
      <internalNodes>
        0 -1 88247 -4.3466780334711075e-03</internalNodes>
      <leafValues>
        5.0942850112915039e-01 -7.1800798177719116e-02</leafValues></_>
    <_>
      <internalNodes>
        0 -1 139415 1.0322047397494316e-02</internalNodes>
      <leafValues>
        -1.1315509676933289e-01 2.9208248853683472e-01</leafValues></_>
    <_>
      <internalNodes>
        0 -1 124394 5.7091601192951202e-03</internalNodes>
      <leafValues>
        1.0508380830287933e-01 -3.2064786553382874e-01</leafValues></_>
    <_>
      <internalNodes>
        0 -1 129247 -8.8290367275476456e-03</internalNodes>
      <leafValues>
        2.9325756430625916e-01 -1.2482701987028122e-01</leafValues></_>
    <_>
      <internalNodes>
        0 -1 160308 -4.9530873075127602e-03</internalNodes>
      <leafValues>
        1.4985357224941254e-01 -2.3306670784950256e-01</leafValues></_>
    <_>
      <internalNodes>
        0 -1 75878 -2.1571919322013855e-02</internalNodes>
      <leafValues>
        -2.7739340066909790e-01 1.5803533792495728e-01</leafValues></_>
    <_>
      <internalNodes>
        0 -1 103162 -7.3237838223576546e-03</internalNodes>
      <leafValues>
        5.8799004554748535e-01 -7.1436643600463867e-02</leafValues></_></weakClassifiers></stage25>
</opencv_storage>
